{"learner":{"attributes":{"best_iteration":"900","best_score":"0.05593975559167247"},"feature_names":["btc_close","eth_close","spx_close","btc_volume","eth_volume","btc_open","btc_high","btc_low","eth_open","eth_high","eth_low","m2","fg_fng_value","gt_bitcoin","hr_hash_rate","log_close","ret_1w","ret_4w","rv_4w","rv_8w","rsi_14","rsi_14_lag1","sma_7","sma_21","sma_50","sma_200","bb_width_20","pctb_20","eth_ret_1w","eth_ret_4w","eth_rv_4w","eth_rv_8w","eth_ret_1w_lag1","eth_ret_1w_lag2","eth_ret_1w_lag3","eth_ret_1w_lag4","eth_btc_ratio","spx_ret_1w","spx_ret_4w","spx_ret_1w_lag1","spx_ret_1w_lag2","spx_ret_1w_lag3","m2_chg_4w","m2_chg_13w","m2_chg_4w_lag1","m2_chg_4w_lag2","m2_chg_4w_lag3"],"feature_types":[],"gradient_booster":{"model":{"gbtree_model_param":{"num_parallel_tree":"1","num_trees":"1051"},"iteration_indptr":[0,1,2,3,4,5,6,7,8,9,10,11,12,13,14,15,16,17,18,19,20,21,22,23,24,25,26,27,28,29,30,31,32,33,34,35,36,37,38,39,40,41,42,43,44,45,46,47,48,49,50,51,52,53,54,55,56,57,58,59,60,61,62,63,64,65,66,67,68,69,70,71,72,73,74,75,76,77,78,79,80,81,82,83,84,85,86,87,88,89,90,91,92,93,94,95,96,97,98,99,100,101,102,103,104,105,106,107,108,109,110,111,112,113,114,115,116,117,118,119,120,121,122,123,124,125,126,127,128,129,130,131,132,133,134,135,136,137,138,139,140,141,142,143,144,145,146,147,148,149,150,151,152,153,154,155,156,157,158,159,160,161,162,163,164,165,166,167,168,169,170,171,172,173,174,175,176,177,178,179,180,181,182,183,184,185,186,187,188,189,190,191,192,193,194,195,196,197,198,199,200,201,202,203,204,205,206,207,208,209,210,211,212,213,214,215,216,217,218,219,220,221,222,223,224,225,226,227,228,229,230,231,232,233,234,235,236,237,238,239,240,241,242,243,244,245,246,247,248,249,250,251,252,253,254,255,256,257,258,259,260,261,262,263,264,265,266,267,268,269,270,271,272,273,274,275,276,277,278,279,280,281,282,283,284,285,286,287,288,289,290,291,292,293,294,295,296,297,298,299,300,301,302,303,304,305,306,307,308,309,310,311,312,313,314,315,316,317,318,319,320,321,322,323,324,325,326,327,328,329,330,331,332,333,334,335,336,337,338,339,340,341,342,343,344,345,346,347,348,349,350,351,352,353,354,355,356,357,358,359,360,361,362,363,364,365,366,367,368,369,370,371,372,373,374,375,376,377,378,379,380,381,382,383,384,385,386,387,388,389,390,391,392,393,394,395,396,397,398,399,400,401,402,403,404,405,406,407,408,409,410,411,412,413,414,415,416,417,418,419,420,421,422,423,424,425,426,427,428,429,430,431,432,433,434,435,436,437,438,439,440,441,442,443,444,445,446,447,448,449,450,451,452,453,454,455,456,457,458,459,460,461,462,463,464,465,466,467,468,469,470,471,472,473,474,475,476,477,478,479,480,481,482,483,484,485,486,487,488,489,490,491,492,493,494,495,496,497,498,499,500,501,502,503,504,505,506,507,508,509,510,511,512,513,514,515,516,517,518,519,520,521,522,523,524,525,526,527,528,529,530,531,532,533,534,535,536,537,538,539,540,541,542,543,544,545,546,547,548,549,550,551,552,553,554,555,556,557,558,559,560,561,562,563,564,565,566,567,568,569,570,571,572,573,574,575,576,577,578,579,580,581,582,583,584,585,586,587,588,589,590,591,592,593,594,595,596,597,598,599,600,601,602,603,604,605,606,607,608,609,610,611,612,613,614,615,616,617,618,619,620,621,622,623,624,625,626,627,628,629,630,631,632,633,634,635,636,637,638,639,640,641,642,643,644,645,646,647,648,649,650,651,652,653,654,655,656,657,658,659,660,661,662,663,664,665,666,667,668,669,670,671,672,673,674,675,676,677,678,679,680,681,682,683,684,685,686,687,688,689,690,691,692,693,694,695,696,697,698,699,700,701,702,703,704,705,706,707,708,709,710,711,712,713,714,715,716,717,718,719,720,721,722,723,724,725,726,727,728,729,730,731,732,733,734,735,736,737,738,739,740,741,742,743,744,745,746,747,748,749,750,751,752,753,754,755,756,757,758,759,760,761,762,763,764,765,766,767,768,769,770,771,772,773,774,775,776,777,778,779,780,781,782,783,784,785,786,787,788,789,790,791,792,793,794,795,796,797,798,799,800,801,802,803,804,805,806,807,808,809,810,811,812,813,814,815,816,817,818,819,820,821,822,823,824,825,826,827,828,829,830,831,832,833,834,835,836,837,838,839,840,841,842,843,844,845,846,847,848,849,850,851,852,853,854,855,856,857,858,859,860,861,862,863,864,865,866,867,868,869,870,871,872,873,874,875,876,877,878,879,880,881,882,883,884,885,886,887,888,889,890,891,892,893,894,895,896,897,898,899,900,901,902,903,904,905,906,907,908,909,910,911,912,913,914,915,916,917,918,919,920,921,922,923,924,925,926,927,928,929,930,931,932,933,934,935,936,937,938,939,940,941,942,943,944,945,946,947,948,949,950,951,952,953,954,955,956,957,958,959,960,961,962,963,964,965,966,967,968,969,970,971,972,973,974,975,976,977,978,979,980,981,982,983,984,985,986,987,988,989,990,991,992,993,994,995,996,997,998,999,1000,1001,1002,1003,1004,1005,1006,1007,1008,1009,1010,1011,1012,1013,1014,1015,1016,1017,1018,1019,1020,1021,1022,1023,1024,1025,1026,1027,1028,1029,1030,1031,1032,1033,1034,1035,1036,1037,1038,1039,1040,1041,1042,1043,1044,1045,1046,1047,1048,1049,1050,1051],"tree_info":[0,0,0,0,0,0,0,0,0,0,0,0,0,0,0,0,0,0,0,0,0,0,0,0,0,0,0,0,0,0,0,0,0,0,0,0,0,0,0,0,0,0,0,0,0,0,0,0,0,0,0,0,0,0,0,0,0,0,0,0,0,0,0,0,0,0,0,0,0,0,0,0,0,0,0,0,0,0,0,0,0,0,0,0,0,0,0,0,0,0,0,0,0,0,0,0,0,0,0,0,0,0,0,0,0,0,0,0,0,0,0,0,0,0,0,0,0,0,0,0,0,0,0,0,0,0,0,0,0,0,0,0,0,0,0,0,0,0,0,0,0,0,0,0,0,0,0,0,0,0,0,0,0,0,0,0,0,0,0,0,0,0,0,0,0,0,0,0,0,0,0,0,0,0,0,0,0,0,0,0,0,0,0,0,0,0,0,0,0,0,0,0,0,0,0,0,0,0,0,0,0,0,0,0,0,0,0,0,0,0,0,0,0,0,0,0,0,0,0,0,0,0,0,0,0,0,0,0,0,0,0,0,0,0,0,0,0,0,0,0,0,0,0,0,0,0,0,0,0,0,0,0,0,0,0,0,0,0,0,0,0,0,0,0,0,0,0,0,0,0,0,0,0,0,0,0,0,0,0,0,0,0,0,0,0,0,0,0,0,0,0,0,0,0,0,0,0,0,0,0,0,0,0,0,0,0,0,0,0,0,0,0,0,0,0,0,0,0,0,0,0,0,0,0,0,0,0,0,0,0,0,0,0,0,0,0,0,0,0,0,0,0,0,0,0,0,0,0,0,0,0,0,0,0,0,0,0,0,0,0,0,0,0,0,0,0,0,0,0,0,0,0,0,0,0,0,0,0,0,0,0,0,0,0,0,0,0,0,0,0,0,0,0,0,0,0,0,0,0,0,0,0,0,0,0,0,0,0,0,0,0,0,0,0,0,0,0,0,0,0,0,0,0,0,0,0,0,0,0,0,0,0,0,0,0,0,0,0,0,0,0,0,0,0,0,0,0,0,0,0,0,0,0,0,0,0,0,0,0,0,0,0,0,0,0,0,0,0,0,0,0,0,0,0,0,0,0,0,0,0,0,0,0,0,0,0,0,0,0,0,0,0,0,0,0,0,0,0,0,0,0,0,0,0,0,0,0,0,0,0,0,0,0,0,0,0,0,0,0,0,0,0,0,0,0,0,0,0,0,0,0,0,0,0,0,0,0,0,0,0,0,0,0,0,0,0,0,0,0,0,0,0,0,0,0,0,0,0,0,0,0,0,0,0,0,0,0,0,0,0,0,0,0,0,0,0,0,0,0,0,0,0,0,0,0,0,0,0,0,0,0,0,0,0,0,0,0,0,0,0,0,0,0,0,0,0,0,0,0,0,0,0,0,0,0,0,0,0,0,0,0,0,0,0,0,0,0,0,0,0,0,0,0,0,0,0,0,0,0,0,0,0,0,0,0,0,0,0,0,0,0,0,0,0,0,0,0,0,0,0,0,0,0,0,0,0,0,0,0,0,0,0,0,0,0,0,0,0,0,0,0,0,0,0,0,0,0,0,0,0,0,0,0,0,0,0,0,0,0,0,0,0,0,0,0,0,0,0,0,0,0,0,0,0,0,0,0,0,0,0,0,0,0,0,0,0,0,0,0,0,0,0,0,0,0,0,0,0,0,0,0,0,0,0,0,0,0,0,0,0,0,0,0,0,0,0,0,0,0,0,0,0,0,0,0,0,0,0,0,0,0,0,0,0,0,0,0,0,0,0,0,0,0,0,0,0,0,0,0,0,0,0,0,0,0,0,0,0,0,0,0,0,0,0,0,0,0,0,0,0,0,0,0,0,0,0,0,0,0,0,0,0,0,0,0,0,0,0,0,0,0,0,0,0,0,0,0,0,0,0,0,0,0,0,0,0,0,0,0,0,0,0,0,0,0,0,0,0,0,0,0,0,0,0,0,0,0,0,0,0,0,0,0,0,0,0,0,0,0,0,0,0,0,0,0,0,0,0,0,0,0,0,0,0,0,0,0,0,0,0,0,0,0,0,0,0,0,0,0,0,0,0,0,0,0,0,0,0,0,0,0,0,0,0,0,0,0,0,0,0,0,0,0,0,0,0,0,0,0,0,0,0,0,0,0,0,0,0,0,0,0,0,0,0,0,0,0,0,0,0,0,0,0,0,0,0,0,0,0,0,0,0,0,0,0,0,0,0,0,0,0,0,0,0,0,0,0,0,0,0,0,0,0,0,0,0,0,0,0,0,0,0,0,0,0,0,0,0,0,0,0,0,0,0,0,0,0,0,0,0,0,0,0,0,0,0,0,0,0,0,0,0,0,0,0,0,0,0,0,0,0,0,0,0,0,0,0,0,0,0,0],"trees":[{"base_weights":[1.2300527E-3,6.1667208E-3,-9.7314745E-2,-4.3678023E-3,4.3809306E-2,2.4987223E-5,-1.6046908E-3,-6.301756E-4,-1.3579954E-3,7.9709835E-2,-1.2140403E-2,-5.750144E-4,3.2474705E-5,4.0031082E-4,1.2809738E-3,6.409629E-4,-6.220171E-4],"categories":[],"categories_nodes":[],"categories_segments":[],"categories_sizes":[],"default_left":[0,0,0,0,0,0,0,0,0,0,0,0,0,0,0,0,0],"id":0,"left_children":[1,3,5,7,9,-1,-1,11,-1,13,15,-1,-1,-1,-1,-1,-1],"loss_changes":[1.0714455E-1,8.435973E-2,6.796856E-2,7.98936E-2,9.456055E-2,0E0,0E0,3.6250956E-2,0E0,5.0473586E-2,7.257991E-2,0E0,0E0,0E0,0E0,0E0,0E0],"parents":[2147483647,0,0,1,1,2,2,3,3,4,4,7,7,9,9,10,10],"right_children":[2,4,6,8,10,-1,-1,12,-1,14,16,-1,-1,-1,-1,-1,-1],"split_conditions":[1.3944663E0,8.7319434E-1,-9.797166E-1,1.8325809E0,3.7803793E-1,2.4987223E-5,-1.6046908E-3,-1.2377816E0,-1.3579954E-3,1.2260159E0,-3.925512E-1,-5.750144E-4,3.2474705E-5,4.0031082E-4,1.2809738E-3,6.409629E-4,-6.220171E-4],"split_indices":[36,20,12,34,39,0,0,42,0,12,30,0,0,0,0,0,0],"split_type":[0,0,0,0,0,0,0,0,0,0,0,0,0,0,0,0,0],"sum_hessian":[2.21E2,2.11E2,1E1,1.65E2,4.6E1,4E0,6E0,1.61E2,4E0,2.8E1,1.8E1,1E1,1.51E2,1.6E1,1.2E1,7E0,1.1E1],"tree_param":{"num_deleted":"0","num_feature":"47","num_nodes":"17","size_leaf_vector":"1"}},{"base_weights":[3.3976254E-4,-9.946084E-3,5.0911095E-2,-5.091225E-3,-1.0556731E-1,-5.177457E-4,7.2288185E-2,-1.1830118E-3,-1.2041188E-3,-4.858373E-4,-1.4859895E-3,1.5251442E-3,4.912024E-2,-3.5668237E-4,1.1369944E-4,7.076463E-4,-3.3246906E-5],"categories":[],"categories_nodes":[],"categories_segments":[],"categories_sizes":[],"default_left":[1,1,0,1,0,0,0,1,0,0,0,0,0,0,0,0,0],"id":1,"left_children":[1,3,5,7,9,-1,11,13,-1,-1,-1,-1,15,-1,-1,-1,-1],"loss_changes":[1.1223907E-1,8.1489295E-2,8.21984E-2,7.5556785E-2,1.5261248E-2,0E0,5.0927535E-2,7.20893E-2,0E0,0E0,0E0,0E0,2.8602928E-2,0E0,0E0,0E0,0E0],"parents":[2147483647,0,0,1,1,2,2,3,3,4,4,6,6,7,7,12,12],"right_children":[2,4,6,8,10,-1,12,14,-1,-1,-1,-1,16,-1,-1,-1,-1],"split_conditions":[9.792754E-1,1.9030014E0,-4.6777934E-1,1.6852391E0,-2.0817685E-1,-5.177457E-4,-3.7731805E-1,-6.4204425E-1,-1.2041188E-3,-4.858373E-4,-1.4859895E-3,1.5251442E-3,5.0476176E-1,-3.5668237E-4,1.1369944E-4,7.076463E-4,-3.3246906E-5],"split_indices":[21,22,34,35,14,0,41,44,0,0,0,0,35,0,0,0,0],"split_type":[0,0,0,0,0,0,0,0,0,0,0,0,0,0,0,0,0],"sum_hessian":[2.14E2,1.78E2,3.6E1,1.7E2,8E0,6E0,3E1,1.65E2,5E0,4E0,4E0,6E0,2.4E1,4.4E1,1.21E2,1.7E1,7E0],"tree_param":{"num_deleted":"0","num_feature":"47","num_nodes":"17","size_leaf_vector":"1"}},{"base_weights":[5.3119245E-3,9.489045E-3,-1.064911E-3,-1.6182897E-3,4.9169224E-2,2.3559981E-3,-1.1420811E-3,7.124966E-2,-1.642026E-2,8.39869E-5,-6.5341516E-4,8.71952E-4,-1.603635E-4,2.9912617E-4,-7.150273E-4],"categories":[],"categories_nodes":[],"categories_segments":[],"categories_sizes":[],"default_left":[1,0,0,0,0,0,0,0,0,0,0,0,0,0,0],"id":2,"left_children":[1,3,-1,5,7,9,-1,11,13,-1,-1,-1,-1,-1,-1],"loss_changes":[9.73748E-2,8.976534E-2,0E0,7.217616E-2,6.558012E-2,6.2498014E-2,0E0,4.803683E-2,3.0834805E-2,0E0,0E0,0E0,0E0,0E0,0E0],"parents":[2147483647,0,0,1,1,3,3,4,4,5,5,7,7,8,8],"right_children":[2,4,-1,6,8,10,-1,12,14,-1,-1,-1,-1,-1,-1],"split_conditions":[1.570237E0,8.7319434E-1,-1.064911E-3,1.9484179E0,5.1110685E-1,1.5270888E0,-1.1420811E-3,1.4869028E0,2.8868628E-1,8.39869E-5,-6.5341516E-4,8.71952E-4,-1.603635E-4,2.9912617E-4,-7.150273E-4],"split_indices":[40,20,0,34,39,10,0,29,44,0,0,0,0,0,0],"split_type":[0,0,0,0,0,0,0,0,0,0,0,0,0,0,0],"sum_hessian":[2.09E2,2.02E2,7E0,1.58E2,4.4E1,1.53E2,5E0,3.3E1,1.1E1,1.41E2,1.2E1,2.8E1,5E0,6E0,5E0],"tree_param":{"num_deleted":"0","num_feature":"47","num_nodes":"15","size_leaf_vector":"1"}},{"base_weights":[-1.6567671E-4,-4.4633243E-3,1.4013097E-3,-1.1601663E-3,-1.4763321E-3,2.1087301E-3,-8.7553024E-2,-1.0767059E-4,3.237104E-4,-1.385436E-3,-2.4612105E-4],"categories":[],"categories_nodes":[],"categories_segments":[],"categories_sizes":[],"default_left":[0,1,0,0,1,0,0,0,0,0,0],"id":3,"left_children":[1,3,-1,-1,5,7,9,-1,-1,-1,-1],"loss_changes":[1.3190557E-1,7.0212744E-2,0E0,0E0,6.5596424E-2,7.8905016E-2,2.3943372E-2,0E0,0E0,0E0,0E0],"parents":[2147483647,0,0,1,1,4,4,5,5,6,6],"right_children":[2,4,-1,-1,6,8,10,-1,-1,-1,-1],"split_conditions":[1.7520478E0,-2.2445219E0,1.4013097E-3,-1.1601663E-3,1.6935875E0,3.01882E-1,4.915677E-1,-1.0767059E-4,3.237104E-4,-1.385436E-3,-2.4612105E-4],"split_indices":[20,39,0,0,29,32,39,0,0,0,0],"split_type":[0,0,0,0,0,0,0,0,0,0,0],"sum_hessian":[2.2E2,2.14E2,6E0,5E0,2.09E2,2.01E2,8E0,1.41E2,6E1,4E0,4E0],"tree_param":{"num_deleted":"0","num_feature":"47","num_nodes":"11","size_leaf_vector":"1"}},{"base_weights":[-1.4435629E-3,5.591234E-3,-9.303189E-2,-6.000732E-3,3.4452684E-2,-1.1707018E-1,-4.5506045E-4,-1.4726453E-3,-1.632466E-3,-1.1406729E-2,5.5324033E-2,-7.932368E-4,-1.4235576E-3,3.7016292E-5,-1.1998513E-3,7.689872E-5,-3.7748792E-4,1.5699305E-3,3.6186754E-4],"categories":[],"categories_nodes":[],"categories_segments":[],"categories_sizes":[],"default_left":[0,1,0,1,0,0,0,0,1,0,0,0,0,0,0,0,0,0,0],"id":4,"left_children":[1,3,5,7,9,11,-1,-1,13,15,17,-1,-1,-1,-1,-1,-1,-1,-1],"loss_changes":[1.4900255E-1,7.181666E-2,1.4560804E-2,9.24952E-2,5.9619285E-2,2.158776E-3,0E0,0E0,9.513362E-2,1.0255086E-2,7.7918574E-2,0E0,0E0,0E0,0E0,0E0,0E0,0E0,0E0],"parents":[2147483647,0,0,1,1,2,2,3,3,4,4,5,5,8,8,9,9,10,10],"right_children":[2,4,6,8,10,12,-1,-1,14,16,18,-1,-1,-1,-1,-1,-1,-1,-1],"split_conditions":[1.623442E0,2.3491323E-1,1.8490651E0,-2.2445219E0,-6.233761E-1,2.953373E-1,-4.5506045E-4,-1.4726453E-3,1.570237E0,2.617089E-1,-4.10795E-1,-7.932368E-4,-1.4235576E-3,3.7016292E-5,-1.1998513E-3,7.689872E-5,-3.7748792E-4,1.5699305E-3,3.6186754E-4],"split_indices":[1,42,5,39,31,43,0,0,40,33,31,0,0,0,0,0,0,0,0],"split_type":[0,0,0,0,0,0,0,0,0,0,0,0,0,0,0,0,0,0,0],"sum_hessian":[2.29E2,2.13E2,1.6E1,1.52E2,6.1E1,1E1,6E0,4E0,1.48E2,1.9E1,4.2E1,5E0,5E0,1.42E2,6E0,1.1E1,8E0,6E0,3.6E1],"tree_param":{"num_deleted":"0","num_feature":"47","num_nodes":"19","size_leaf_vector":"1"}},{"base_weights":[-2.5872444E-3,2.2372226E-3,-8.877331E-2,-1.1793635E-3,4.7644065E-3,-2.4187601E-4,-1.6695624E-3,3.5979573E-2,-3.8872217E-3,1.931828E-4,1.2221856E-3,6.134729E-7,-1.0505583E-3],"categories":[],"categories_nodes":[],"categories_segments":[],"categories_sizes":[],"default_left":[0,0,0,0,0,0,0,0,0,0,0,0,0],"id":5,"left_children":[1,3,5,-1,7,-1,-1,9,11,-1,-1,-1,-1],"loss_changes":[9.8054394E-2,6.641893E-2,5.9188157E-2,0E0,5.9129335E-2,0E0,0E0,6.565461E-2,6.916301E-2,0E0,0E0,0E0,0E0],"parents":[2147483647,0,0,1,1,2,2,4,4,7,7,8,8],"right_children":[2,4,6,-1,8,-1,-1,10,12,-1,-1,-1,-1],"split_conditions":[1.3458962E0,-2.2445219E0,-7.5292635E-1,-1.1793635E-3,-7.951963E-1,-2.4187601E-4,-1.6695624E-3,6.0925116E-3,1.570237E0,1.931828E-4,1.2221856E-3,6.134729E-7,-1.0505583E-3],"split_indices":[36,39,27,0,24,0,0,11,40,0,0,0,0],"split_type":[0,0,0,0,0,0,0,0,0,0,0,0,0],"sum_hessian":[2.33E2,2.21E2,1.2E1,4E0,2.17E2,7E0,5E0,4.7E1,1.7E2,4E1,7E0,1.64E2,6E0],"tree_param":{"num_deleted":"0","num_feature":"47","num_nodes":"13","size_leaf_vector":"1"}},{"base_weights":[-6.015252E-3,-2.8877918E-4,-1.0771169E-1,-1.6670538E-2,2.2418113E-2,-2.973086E-4,-1.4598606E-3,-9.8942015E-3,-1.0420024E-1,7.5240997E-3,7.6419786E-2,9.8407385E-5,-3.9282363E-4,-1.6493294E-3,-2.96675E-4,4.438559E-4,-6.871075E-5,1.4188805E-3,4.6176423E-4],"categories":[],"categories_nodes":[],"categories_segments":[],"categories_sizes":[],"default_left":[0,1,0,0,0,0,0,0,0,1,0,0,0,0,0,0,0,0,0],"id":6,"left_children":[1,3,5,7,9,-1,-1,11,13,15,17,-1,-1,-1,-1,-1,-1,-1,-1],"loss_changes":[1.2556815E-1,7.694302E-2,3.0396357E-2,6.98158E-2,6.844516E-2,0E0,0E0,6.573473E-2,3.408332E-2,3.687563E-2,3.147304E-2,0E0,0E0,0E0,0E0,0E0,0E0,0E0,0E0],"parents":[2147483647,0,0,1,1,2,2,3,3,4,4,7,7,8,8,9,9,10,10],"right_children":[2,4,6,8,10,-1,-1,12,14,16,18,-1,-1,-1,-1,-1,-1,-1,-1],"split_conditions":[1.3458962E0,2.4520805E-1,-6.382048E-1,9.5439744E-1,9.792754E-1,-2.973086E-4,-1.4598606E-3,1.8305296E-1,-2.7047122E-1,-8.5226095E-1,5.7600565E-2,9.8407385E-5,-3.9282363E-4,-1.6493294E-3,-2.96675E-4,4.438559E-4,-6.871075E-5,1.4188805E-3,4.6176423E-4],"split_indices":[36,37,34,11,21,0,0,35,34,19,34,0,0,0,0,0,0,0,0],"split_type":[0,0,0,0,0,0,0,0,0,0,0,0,0,0,0,0,0,0,0],"sum_hessian":[2.17E2,2.06E2,1.1E1,1.2E2,8.6E1,4E0,7E0,1.12E2,8E0,6.8E1,1.8E1,6.7E1,4.5E1,4E0,4E0,1.9E1,4.9E1,5E0,1.3E1],"tree_param":{"num_deleted":"0","num_feature":"47","num_nodes":"19","size_leaf_vector":"1"}},{"base_weights":[2.4947505E-3,8.482551E-3,-1.0634694E-1,-4.205586E-4,6.136026E-2,-1.6489098E-3,-6.2797393E-4,1.0325686E-1,-5.586053E-3,3.232852E-2,1.645291E-3,5.581643E-4,1.3700207E-3,3.7455533E-4,-1.5218681E-4,-1.2366322E-4,5.1131204E-4],"categories":[],"categories_nodes":[],"categories_segments":[],"categories_sizes":[],"default_left":[0,1,0,0,0,0,0,0,0,0,0,0,0,0,0,0,0],"id":7,"left_children":[1,3,5,7,9,-1,-1,11,13,15,-1,-1,-1,-1,-1,-1,-1],"loss_changes":[1.4382893E-1,9.972066E-2,2.1865755E-2,9.5977575E-2,8.6724654E-2,0E0,0E0,7.85587E-3,7.1581766E-2,2.129319E-2,0E0,0E0,0E0,0E0,0E0,0E0,0E0],"parents":[2147483647,0,0,1,1,2,2,3,3,4,4,7,7,8,8,9,9],"right_children":[2,4,6,8,10,-1,-1,12,14,16,-1,-1,-1,-1,-1,-1,-1],"split_conditions":[1.2856635E0,5.263214E-1,8.7494725E-1,-1.1973665E0,1.3668075E0,-1.6489098E-3,-6.2797393E-4,6.20482E-2,-6.673967E-1,-7.1640664E-1,1.645291E-3,5.581643E-4,1.3700207E-3,3.7455533E-4,-1.5218681E-4,-1.2366322E-4,5.1131204E-4],"split_indices":[36,42,11,19,12,0,0,28,28,31,0,0,0,0,0,0,0],"split_type":[0,0,0,0,0,0,0,0,0,0,0,0,0,0,0,0,0],"sum_hessian":[2.21E2,2.1E2,1.1E1,1.8E2,3E1,4E0,7E0,8E0,1.72E2,2.4E1,6E0,4E0,4E0,3.1E1,1.41E2,7E0,1.7E1],"tree_param":{"num_deleted":"0","num_feature":"47","num_nodes":"17","size_leaf_vector":"1"}},{"base_weights":[-1.769761E-4,6.8100365E-3,-7.756987E-2,-1.4485499E-3,1.026411E-2,-6.838945E-5,-1.1945657E-1,1.5028029E-2,-5.518796E-2,-1.7433359E-3,-6.229473E-4,1.1497282E-4,1.1037966E-3,-9.666017E-4,1.21043704E-4],"categories":[],"categories_nodes":[],"categories_segments":[],"categories_sizes":[],"default_left":[0,1,0,0,0,0,0,1,0,0,0,0,0,0,0],"id":8,"left_children":[1,3,5,-1,7,-1,9,11,13,-1,-1,-1,-1,-1,-1],"loss_changes":[1.2074678E-1,1.0600344E-1,5.3138234E-2,0E0,6.2218845E-2,0E0,2.827771E-2,6.0934238E-2,3.910585E-2,0E0,0E0,0E0,0E0,0E0,0E0],"parents":[2147483647,0,0,1,1,2,2,4,4,6,6,7,7,8,8],"right_children":[2,4,6,-1,8,-1,10,12,14,-1,-1,-1,-1,-1,-1],"split_conditions":[1.1989151E0,-2.2445219E0,-2.8348634E-1,-1.4485499E-3,1.6916943E0,-6.838945E-5,-5.405394E-1,1.7425531E0,4.0665114E-1,-1.7433359E-3,-6.229473E-4,1.1497282E-4,1.1037966E-3,-9.666017E-4,1.21043704E-4],"split_indices":[36,39,0,0,6,0,44,26,37,0,0,0,0,0,0],"split_type":[0,0,0,0,0,0,0,0,0,0,0,0,0,0,0],"sum_hessian":[2.21E2,2.03E2,1.8E1,4E0,1.99E2,7E0,1.1E1,1.86E2,1.3E1,5E0,6E0,1.8E2,6E0,8E0,5E0],"tree_param":{"num_deleted":"0","num_feature":"47","num_nodes":"15","size_leaf_vector":"1"}},{"base_weights":[-2.796064E-3,4.699122E-3,-7.798472E-2,-4.168365E-2,1.2232036E-2,-1.7114093E-5,-1.0879742E-1,-1.551186E-3,-1.3822625E-2,1.5892783E-2,-8.319463E-4,-1.9246611E-3,-6.6806205E-2,-3.9128828E-4,2.4477506E-4,3.9846892E-4,5.4192853E-5,-3.3430936E-4,-9.229E-4],"categories":[],"categories_nodes":[],"categories_segments":[],"categories_sizes":[],"default_left":[0,0,0,0,1,0,0,0,0,0,0,0,0,0,0,0,0,0,0],"id":9,"left_children":[1,3,5,7,9,-1,11,-1,13,15,-1,-1,17,-1,-1,-1,-1,-1,-1],"loss_changes":[1.2743373E-1,7.1412206E-2,4.6980664E-2,8.731033E-2,6.1645336E-2,0E0,4.1921884E-2,0E0,2.3402328E-2,4.221497E-2,0E0,0E0,6.1306693E-3,0E0,0E0,0E0,0E0,0E0,0E0],"parents":[2147483647,0,0,1,1,2,2,3,3,4,4,6,6,8,8,9,9,12,12],"right_children":[2,4,6,8,10,-1,12,-1,14,16,-1,-1,18,-1,-1,-1,-1,-1,-1],"split_conditions":[1.1989151E0,-8.6557287E-1,-2.8348634E-1,-6.665678E-1,1.4695731E0,-1.7114093E-5,6.8590367E-1,-1.551186E-3,-9.4506705E-1,-5.886009E-1,-8.319463E-4,-1.9246611E-3,-4.8291352E-1,-3.9128828E-4,2.4477506E-4,3.9846892E-4,5.4192853E-5,-3.3430936E-4,-9.229E-4],"split_indices":[36,46,0,33,33,0,2,0,45,24,0,0,20,0,0,0,0,0,0],"split_type":[0,0,0,0,0,0,0,0,0,0,0,0,0,0,0,0,0,0,0],"sum_hessian":[2.24E2,2.04E2,2E1,2.8E1,1.76E2,6E0,1.4E1,5E0,2.3E1,1.7E2,6E0,4E0,1E1,1.4E1,9E0,5.1E1,1.19E2,5E0,5E0],"tree_param":{"num_deleted":"0","num_feature":"47","num_nodes":"19","size_leaf_vector":"1"}},{"base_weights":[-2.4218268E-3,2.4856564E-3,-9.008556E-2,-1.1687937E-2,2.7508274E-2,-4.0722437E-2,-1.7109527E-3,8.0577726E-4,-1.6863763E-2,5.7785E-2,9.704049E-3,-6.3036E-4,-1.16619325E-4,-1.2001269E-4,-9.706857E-4,2.2396026E-4,1.1980333E-3,6.8997813E-4,-3.428723E-5],"categories":[],"categories_nodes":[],"categories_segments":[],"categories_sizes":[],"default_left":[1,1,0,0,0,0,0,0,1,0,0,0,0,0,0,0,0,0,0],"id":10,"left_children":[1,3,5,7,9,11,-1,-1,13,15,17,-1,-1,-1,-1,-1,-1,-1,-1],"loss_changes":[1.014416E-1,7.887624E-2,4.438428E-2,6.761574E-2,4.243856E-2,4.39723E-3,0E0,0E0,5.0781205E-2,6.198203E-2,4.0876593E-2,0E0,0E0,0E0,0E0,0E0,0E0,0E0,0E0],"parents":[2147483647,0,0,1,1,2,2,3,3,4,4,5,5,8,8,9,9,10,10],"right_children":[2,4,6,8,10,12,-1,-1,14,16,18,-1,-1,-1,-1,-1,-1,-1,-1],"split_conditions":[1.6935875E0,2.096812E-1,2.1477549E-1,-1.1973665E0,2.2263063E-1,-4.8834175E-1,-1.7109527E-3,8.0577726E-4,1.2811372E0,-1.6501439E-3,-3.2183975E-1,-6.3036E-4,-1.16619325E-4,-1.2001269E-4,-9.706857E-4,2.2396026E-4,1.1980333E-3,6.8997813E-4,-3.428723E-5],"split_indices":[29,17,1,19,38,19,0,0,40,45,16,0,0,0,0,0,0,0,0],"split_type":[0,0,0,0,0,0,0,0,0,0,0,0,0,0,0,0,0,0,0],"sum_hessian":[2.33E2,2.21E2,1.2E1,1.41E2,8E1,8E0,4E0,7E0,1.34E2,2.9E1,5.1E1,4E0,4E0,1.27E2,7E0,1.9E1,1E1,9E0,4.2E1],"tree_param":{"num_deleted":"0","num_feature":"47","num_nodes":"19","size_leaf_vector":"1"}},{"base_weights":[-1.9275274E-3,4.161787E-3,-6.709436E-2,1.196469E-2,-6.263301E-2,-1.6417173E-3,-3.3963654E-2,4.758121E-3,9.1625735E-2,-2.9904753E-2,-1.4735509E-3,1.5345915E-3,-9.400938E-4,8.8238856E-5,-1.1028497E-3,1.3279628E-3,2.9200726E-4,-9.602859E-5,-6.4126117E-4,2.553935E-4,-2.5752847E-4],"categories":[],"categories_nodes":[],"categories_segments":[],"categories_sizes":[],"default_left":[0,0,0,0,0,0,0,1,0,0,0,0,0,0,0,0,0,0,0,0,0],"id":11,"left_children":[1,3,5,7,9,-1,11,13,15,17,-1,19,-1,-1,-1,-1,-1,-1,-1,-1,-1],"loss_changes":[8.588712E-2,1.022825E-1,5.473119E-2,1.00143805E-1,5.2866615E-2,0E0,3.1903893E-2,7.547941E-2,3.370721E-2,9.723572E-3,0E0,6.549491E-3,0E0,0E0,0E0,0E0,0E0,0E0,0E0,0E0,0E0],"parents":[2147483647,0,0,1,1,2,2,3,3,4,4,6,6,7,7,8,8,9,9,11,11],"right_children":[2,4,6,8,10,-1,12,14,16,18,-1,20,-1,-1,-1,-1,-1,-1,-1,-1,-1],"split_conditions":[9.484445E-1,1.2323257E0,-5.405394E-1,1.3668075E0,1.2521743E0,-1.6417173E-3,1.5077935E0,1.6852391E0,5.574063E-1,-6.22213E-2,-1.4735509E-3,-1.5945907E-1,-9.400938E-4,8.8238856E-5,-1.1028497E-3,1.3279628E-3,2.9200726E-4,-9.602859E-5,-6.4126117E-4,2.553935E-4,-2.5752847E-4],"split_indices":[11,33,44,12,13,0,10,35,38,3,0,35,0,0,0,0,0,0,0,0,0],"split_type":[0,0,0,0,0,0,0,0,0,0,0,0,0,0,0,0,0,0,0,0,0],"sum_hessian":[2.14E2,1.96E2,1.8E1,1.76E2,2E1,4E0,1.4E1,1.62E2,1.4E1,1.5E1,5E0,9E0,5E0,1.57E2,5E0,8E0,6E0,1E1,5E0,5E0,4E0],"tree_param":{"num_deleted":"0","num_feature":"47","num_nodes":"21","size_leaf_vector":"1"}},{"base_weights":[5.8426935E-4,1.8991083E-2,-2.0241935E-2,-7.055233E-4,5.620824E-2,-1.2796206E-2,-1.7874935E-3,5.72827E-2,-1.7923022E-2,7.091195E-2,-6.7078305E-4,1.1395699E-3,-6.9796E-2,7.9900067E-4,-0E0,-1.72004E-3,-5.08832E-5,1.2190482E-4,9.2463626E-4,-5.6370212E-5,9.4646163E-4,-6.159143E-5,-1.0438628E-3],"categories":[],"categories_nodes":[],"categories_segments":[],"categories_sizes":[],"default_left":[0,0,0,0,0,0,0,0,0,0,0,0,0,0,0,0,0,0,0,0,0,0,0],"id":12,"left_children":[1,3,5,7,9,11,-1,13,15,17,-1,19,21,-1,-1,-1,-1,-1,-1,-1,-1,-1,-1],"loss_changes":[8.394038E-2,8.5975386E-2,1.1791173E-1,7.649827E-2,7.583381E-2,7.896848E-2,0E0,2.2377387E-2,1.1545767E-1,4.4582292E-2,0E0,5.1532503E-2,4.1496806E-2,0E0,0E0,0E0,0E0,0E0,0E0,0E0,0E0,0E0,0E0],"parents":[2147483647,0,0,1,1,2,2,3,3,4,4,5,5,7,7,8,8,9,9,11,11,12,12],"right_children":[2,4,6,8,10,12,-1,14,16,18,-1,20,22,-1,-1,-1,-1,-1,-1,-1,-1,-1,-1],"split_conditions":[1.08173564E-1,-4.5467356E-1,1.0821657E0,-1.1282775E0,1.8314135E0,1.1064526E0,-1.7874935E-3,-2.4635194E-1,-8.6557287E-1,-3.652703E-1,-6.7078305E-4,1.2600117E0,-7.734627E-1,7.9900067E-4,-0E0,-1.72004E-3,-5.08832E-5,1.2190482E-4,9.2463626E-4,-5.6370212E-5,9.4646163E-4,-6.159143E-5,-1.0438628E-3],"split_indices":[8,13,40,22,21,36,0,30,46,18,0,34,37,0,0,0,0,0,0,0,0,0,0],"split_type":[0,0,0,0,0,0,0,0,0,0,0,0,0,0,0,0,0,0,0,0,0,0,0],"sum_hessian":[2.18E2,1.16E2,1.02E2,7.6E1,4E1,9.8E1,4E0,1.7E1,5.9E1,3.6E1,4E0,7.9E1,1.9E1,1.2E1,5E0,4E0,5.5E1,1E1,2.6E1,7.4E1,5E0,7E0,1.2E1],"tree_param":{"num_deleted":"0","num_feature":"47","num_nodes":"23","size_leaf_vector":"1"}},{"base_weights":[-4.550515E-3,2.4489735E-3,-7.2019994E-2,-1.3313208E-2,2.443134E-2,-1.4573146E-3,-4.2895917E-2,-7.6446375E-3,-1.4880663E-3,6.7007462E-3,8.103016E-2,-0E0,-7.765661E-2,-1.0395425E-3,-1.521816E-5,1.8215012E-4,-5.865482E-4,1.117635E-3,9.4278155E-5,-4.370068E-4,-1.007618E-3],"categories":[],"categories_nodes":[],"categories_segments":[],"categories_sizes":[],"default_left":[0,1,0,0,0,0,0,0,0,0,0,0,0,0,0,0,0,0,0,0,0],"id":13,"left_children":[1,3,5,7,9,-1,11,13,-1,15,17,-1,19,-1,-1,-1,-1,-1,-1,-1,-1],"loss_changes":[1.0302642E-1,6.835911E-2,3.899704E-2,8.580887E-2,8.1642486E-2,0E0,2.273874E-2,6.402651E-2,0E0,4.7914907E-2,4.1172564E-2,0E0,3.0224398E-3,0E0,0E0,0E0,0E0,0E0,0E0,0E0,0E0],"parents":[2147483647,0,0,1,1,2,2,3,3,4,4,6,6,7,7,9,9,10,10,12,12],"right_children":[2,4,6,8,10,-1,12,14,-1,16,18,-1,20,-1,-1,-1,-1,-1,-1,-1,-1],"split_conditions":[1.2351937E0,2.4520805E-1,-6.142488E-1,1.3260148E0,9.792754E-1,-1.4573146E-3,9.5644933E-1,-1.0924401E0,-1.4880663E-3,4.813432E-1,4.4689E-1,-0E0,-1.0625842E-1,-1.0395425E-3,-1.521816E-5,1.8215012E-4,-5.865482E-4,1.117635E-3,9.4278155E-5,-4.370068E-4,-1.007618E-3],"split_indices":[36,37,44,40,21,0,6,39,0,13,45,0,16,0,0,0,0,0,0,0,0],"split_type":[0,0,0,0,0,0,0,0,0,0,0,0,0,0,0,0,0,0,0,0,0],"sum_hessian":[2.16E2,1.96E2,2E1,1.14E2,8.2E1,5E0,1.5E1,1.1E2,4E0,6.3E1,1.9E1,7E0,8E0,6E0,1.04E2,5.4E1,9E0,1.3E1,6E0,4E0,4E0],"tree_param":{"num_deleted":"0","num_feature":"47","num_nodes":"21","size_leaf_vector":"1"}},{"base_weights":[-4.4919117E-4,4.8664915E-3,-9.628816E-2,-1.146811E-3,7.573841E-3,-1.3675857E-3,-1.5916552E-4,1.1988802E-2,-5.361187E-2,-6.386912E-4,1.5145497E-4,-1.7247062E-4,-1.2220293E-3],"categories":[],"categories_nodes":[],"categories_segments":[],"categories_sizes":[],"default_left":[0,0,0,0,0,0,0,1,1,0,0,0,0],"id":14,"left_children":[1,3,5,-1,7,-1,-1,9,11,-1,-1,-1,-1],"loss_changes":[1.1144433E-1,6.5874755E-2,3.4790628E-2,0E0,5.4336853E-2,0E0,0E0,4.513468E-2,3.1224739E-2,0E0,0E0,0E0,0E0],"parents":[2147483647,0,0,1,1,2,2,4,4,7,7,8,8],"right_children":[2,4,6,-1,8,-1,-1,10,12,-1,-1,-1,-1],"split_conditions":[1.3458962E0,-2.2445219E0,1.7621446E0,-1.146811E-3,1.4695731E0,-1.3675857E-3,-1.5916552E-4,-1.4158688E0,4.4095594E-1,-6.386912E-4,1.5145497E-4,-1.7247062E-4,-1.2220293E-3],"split_indices":[36,39,23,0,33,0,0,42,16,0,0,0,0],"split_type":[0,0,0,0,0,0,0,0,0,0,0,0,0],"sum_hessian":[2.16E2,2.05E2,1.1E1,4E0,2.01E2,7E0,4E0,1.88E2,1.3E1,7E0,1.81E2,9E0,4E0],"tree_param":{"num_deleted":"0","num_feature":"47","num_nodes":"13","size_leaf_vector":"1"}},{"base_weights":[-5.2170088E-3,-1.6187757E-2,3.437825E-2,-9.348226E-3,-9.362873E-2,1.8813174E-2,1.7533969E-3,-1.1813489E-3,-4.5202165E-3,-1.2269695E-4,-1.3958877E-1,7.229823E-2,-8.377697E-3,8.5585685E-7,-1.2693445E-3,-1.8886396E-3,-7.258149E-4,2.5866902E-4,1.1257633E-3,5.567414E-5,-8.5592445E-4],"categories":[],"categories_nodes":[],"categories_segments":[],"categories_sizes":[],"default_left":[1,1,0,0,0,0,0,0,1,0,0,0,0,0,0,0,0,0,0,0,0],"id":15,"left_children":[1,3,5,7,9,11,-1,-1,13,-1,15,17,19,-1,-1,-1,-1,-1,-1,-1,-1],"loss_changes":[9.3272924E-2,8.7780304E-2,9.843363E-2,8.017863E-2,4.8105113E-2,6.275003E-2,0E0,0E0,8.5564375E-2,0E0,1.8596813E-2,2.4276972E-2,3.1726412E-2,0E0,0E0,0E0,0E0,0E0,0E0,0E0,0E0],"parents":[2147483647,0,0,1,1,2,2,3,3,4,4,5,5,8,8,10,10,11,11,12,12],"right_children":[2,4,6,8,10,12,-1,-1,14,-1,16,18,20,-1,-1,-1,-1,-1,-1,-1,-1],"split_conditions":[4.3352112E-1,1.0484691E0,1.9769037E0,-1.6462291E0,-4.6559817E-1,-6.1989844E-1,1.7533969E-3,-1.1813489E-3,1.8860645E0,-1.2269695E-4,1.386001E-1,-1.4718633E0,9.590427E-1,8.5585685E-7,-1.2693445E-3,-1.8886396E-3,-7.258149E-4,2.5866902E-4,1.1257633E-3,5.567414E-5,-8.5592445E-4],"split_indices":[42,40,12,38,17,11,0,0,22,0,2,2,33,0,0,0,0,0,0,0,0],"split_type":[0,0,0,0,0,0,0,0,0,0,0,0,0,0,0,0,0,0,0,0,0],"sum_hessian":[2.14E2,1.68E2,4.6E1,1.55E2,1.3E1,4.2E1,4E0,6E0,1.49E2,5E0,8E0,1.4E1,2.8E1,1.44E2,5E0,4E0,4E0,7E0,7E0,2.4E1,4E0],"tree_param":{"num_deleted":"0","num_feature":"47","num_nodes":"21","size_leaf_vector":"1"}},{"base_weights":[4.2381136E-5,-1.4118475E-3,3.2300402E-3,9.817982E-3,-7.072549E-2,1.4114983E-2,-6.9932185E-2,-1.0133615E-1,-0E0,7.547078E-5,9.28826E-4,-1.319716E-4,-1.2928252E-3,-1.282632E-3,-4.2975924E-4],"categories":[],"categories_nodes":[],"categories_segments":[],"categories_sizes":[],"default_left":[1,0,0,0,0,0,0,0,0,0,0,0,0,0,0],"id":16,"left_children":[1,-1,3,5,7,9,11,13,-1,-1,-1,-1,-1,-1,-1],"loss_changes":[9.181146E-2,0E0,9.83991E-2,6.384641E-2,3.555911E-2,9.047274E-2,2.9710926E-2,1.3603397E-2,0E0,0E0,0E0,0E0,0E0,0E0,0E0],"parents":[2147483647,0,0,2,2,3,3,4,4,5,5,6,6,7,7],"right_children":[2,-1,4,6,8,10,12,14,-1,-1,-1,-1,-1,-1,-1],"split_conditions":[-2.2445219E0,-1.4118475E-3,1.2351937E0,1.4695731E0,3.6362958E-1,1.3668075E0,-1.6824442E-1,-1.1531876E-1,-0E0,7.547078E-5,9.28826E-4,-1.319716E-4,-1.2928252E-3,-1.282632E-3,-4.2975924E-4],"split_indices":[39,0,36,33,13,12,3,30,0,0,0,0,0,0,0],"split_type":[0,0,0,0,0,0,0,0,0,0,0,0,0,0,0],"sum_hessian":[2.06E2,4E0,2.02E2,1.86E2,1.6E1,1.77E2,9E0,1.1E1,5E0,1.64E2,1.3E1,5E0,4E0,7E0,4E0],"tree_param":{"num_deleted":"0","num_feature":"47","num_nodes":"15","size_leaf_vector":"1"}},{"base_weights":[-2.5427822E-4,5.387352E-3,-9.9963956E-2,9.0349716E-4,1.1997616E-3,-2.9669728E-4,-1.502157E-3,6.069617E-3,-6.2747285E-2,3.730793E-4,-2.8854469E-5,-2.3736349E-4,-1.2260732E-3],"categories":[],"categories_nodes":[],"categories_segments":[],"categories_sizes":[],"default_left":[1,0,0,0,0,0,0,0,0,0,0,0,0],"id":17,"left_children":[1,3,5,7,-1,-1,-1,9,11,-1,-1,-1,-1],"loss_changes":[1.20751634E-1,1.0226762E-1,3.6595397E-2,6.358061E-2,0E0,0E0,0E0,5.089131E-2,3.0941784E-2,0E0,0E0,0E0,0E0],"parents":[2147483647,0,0,1,1,2,2,3,3,7,7,8,8],"right_children":[2,4,6,8,-1,-1,-1,10,12,-1,-1,-1,-1],"split_conditions":[1.6935875E0,1.9299732E0,-2.842966E-1,9.585606E-1,1.1997616E-3,-2.9669728E-4,-1.502157E-3,-5.581538E-1,-1.5769465E-1,3.730793E-4,-2.8854469E-5,-2.3736349E-4,-1.2260732E-3],"split_indices":[29,12,8,11,0,0,0,28,32,0,0,0,0],"split_type":[0,0,0,0,0,0,0,0,0,0,0,0,0],"sum_hessian":[2.12E2,2.01E2,1.1E1,1.94E2,7E0,5E0,6E0,1.8E2,1.4E1,4E1,1.4E2,9E0,5E0],"tree_param":{"num_deleted":"0","num_feature":"47","num_nodes":"13","size_leaf_vector":"1"}},{"base_weights":[-3.4895008E-3,3.3476944E-3,-7.042978E-2,-4.213266E-2,1.0954203E-2,-1.5622856E-3,-4.4289816E-2,-1.4395217E-3,-1.1337407E-2,1.6169157E-2,-4.5379058E-2,2.4755657E-4,-7.6255485E-2,-3.0650804E-4,6.7099615E-4,1.2955505E-4,1.0198687E-3,-1.2897584E-4,-1.1390481E-3,-2.5042225E-4,-1.005664E-3],"categories":[],"categories_nodes":[],"categories_segments":[],"categories_sizes":[],"default_left":[0,0,0,0,0,0,0,0,0,0,0,0,0,0,0,0,0,0,0,0,0],"id":18,"left_children":[1,3,5,7,9,-1,11,-1,13,15,17,-1,19,-1,-1,-1,-1,-1,-1,-1,-1],"loss_changes":[1.012503E-1,6.893535E-2,4.0512078E-2,8.699448E-2,5.045724E-2,0E0,3.7875775E-2,0E0,3.4748763E-2,4.162658E-2,3.0271783E-2,0E0,1.1802688E-2,0E0,0E0,0E0,0E0,0E0,0E0,0E0,0E0],"parents":[2147483647,0,0,1,1,2,2,3,3,4,4,6,6,8,8,9,9,10,10,12,12],"right_children":[2,4,6,8,10,-1,12,-1,14,16,18,-1,20,-1,-1,-1,-1,-1,-1,-1,-1],"split_conditions":[1.2297031E0,-7.7863926E-1,-6.142488E-1,-6.665678E-1,1.6916943E0,-1.5622856E-3,-7.734627E-1,-1.4395217E-3,1.0009061E0,1.2916235E0,1.5499095E0,2.4755657E-4,-3.3880252E-1,-3.0650804E-4,6.7099615E-4,1.2955505E-4,1.0198687E-3,-1.2897584E-4,-1.1390481E-3,-2.5042225E-4,-1.005664E-3],"split_indices":[36,46,44,33,6,0,37,0,21,5,4,0,40,0,0,0,0,0,0,0,0],"split_type":[0,0,0,0,0,0,0,0,0,0,0,0,0,0,0,0,0,0,0,0,0],"sum_hessian":[2.19E2,1.99E2,2E1,2.8E1,1.71E2,4E0,1.6E1,6E0,2.2E1,1.57E2,1.4E1,5E0,1.1E1,1.8E1,4E0,1.52E2,5E0,1E1,4E0,4E0,7E0],"tree_param":{"num_deleted":"0","num_feature":"47","num_nodes":"21","size_leaf_vector":"1"}},{"base_weights":[-7.7678956E-4,3.8238068E-3,-8.5023396E-2,6.5736044E-3,-1.1934187E-3,-3.7868365E-4,-1.5194584E-3,1.3548653E-3,6.1729424E-2,7.3910115E-4,-2.4543911E-5,-1.2235163E-4,1.0172117E-3],"categories":[],"categories_nodes":[],"categories_segments":[],"categories_sizes":[],"default_left":[1,1,0,0,0,0,0,0,0,0,0,0,0],"id":19,"left_children":[1,3,5,7,-1,-1,-1,9,11,-1,-1,-1,-1],"loss_changes":[8.604938E-2,6.98795E-2,3.1515785E-2,5.8191404E-2,0E0,0E0,0E0,5.26268E-2,5.328168E-2,0E0,0E0,0E0,0E0],"parents":[2147483647,0,0,1,1,2,2,3,3,7,7,8,8],"right_children":[2,4,6,8,-1,-1,-1,10,12,-1,-1,-1,-1],"split_conditions":[1.8860645E0,1.7529776E0,1.5293709E0,1.3668075E0,-1.1934187E-3,-3.7868365E-4,-1.5194584E-3,-1.1973665E0,-5.562684E-1,7.3910115E-4,-2.4543911E-5,-1.2235163E-4,1.0172117E-3],"split_indices":[22,34,3,12,0,0,0,19,22,0,0,0,0],"split_type":[0,0,0,0,0,0,0,0,0,0,0,0,0],"sum_hessian":[2.19E2,2.08E2,1.1E1,2.04E2,4E0,7E0,4E0,1.87E2,1.7E1,9E0,1.78E2,6E0,1.1E1],"tree_param":{"num_deleted":"0","num_feature":"47","num_nodes":"13","size_leaf_vector":"1"}},{"base_weights":[9.0084085E-4,-3.020034E-3,1.3236208E-3,7.9289004E-2,-7.266919E-3,1.1751457E-3,1.3042182E-4,3.629363E-2,-1.48735475E-2,-2.4870428E-4,5.5467396E-4,2.1773184E-4,-2.4151284E-4],"categories":[],"categories_nodes":[],"categories_segments":[],"categories_sizes":[],"default_left":[0,0,0,0,0,0,0,0,0,0,0,0,0],"id":20,"left_children":[1,3,-1,5,7,-1,-1,9,11,-1,-1,-1,-1],"loss_changes":[1.1566392E-1,7.489741E-2,0E0,2.4517499E-2,6.81479E-2,0E0,0E0,3.6764458E-2,5.9956487E-2,0E0,0E0,0E0,0E0],"parents":[2147483647,0,0,1,1,3,3,4,4,7,7,8,8],"right_children":[2,4,-1,6,8,-1,-1,10,12,-1,-1,-1,-1],"split_conditions":[1.9769037E0,-1.1973665E0,1.3236208E-3,4.373475E-1,-1.0844728E0,1.1751457E-3,1.3042182E-4,-8.1798524E-1,-6.6973186E-1,-2.4870428E-4,5.5467396E-4,2.1773184E-4,-2.4151284E-4],"split_indices":[12,19,0,37,22,0,0,19,28,0,0,0,0],"split_type":[0,0,0,0,0,0,0,0,0,0,0,0,0],"sum_hessian":[2.21E2,2.15E2,6E0,1E1,2.05E2,6E0,4E0,3E1,1.75E2,7E0,2.3E1,3.5E1,1.4E2],"tree_param":{"num_deleted":"0","num_feature":"47","num_nodes":"13","size_leaf_vector":"1"}},{"base_weights":[2.1229545E-3,-4.8416723E-3,7.0977546E-2,5.554112E-5,-7.577199E-2,1.1052042E-1,-3.7906176E-4,3.3401037E-3,-8.608282E-4,-1.4928314E-3,-3.1220673E-2,9.131347E-6,1.6710778E-1,8.149499E-4,7.1979516E-6,-6.333028E-4,2.135677E-5,1.1289854E-3,1.9445097E-3],"categories":[],"categories_nodes":[],"categories_segments":[],"categories_sizes":[],"default_left":[0,0,0,1,0,0,0,0,0,0,0,0,0,0,0,0,0,0,0],"id":21,"left_children":[1,3,5,7,9,11,-1,13,-1,-1,15,-1,17,-1,-1,-1,-1,-1,-1],"loss_changes":[1.01777725E-1,6.727888E-2,8.6779565E-2,5.0101697E-2,3.6802344E-2,8.81781E-2,0E0,3.4679573E-2,0E0,0E0,9.783576E-3,0E0,3.132224E-5,0E0,0E0,0E0,0E0,0E0,0E0],"parents":[2147483647,0,0,1,1,2,2,3,3,4,4,5,5,7,7,10,10,12,12],"right_children":[2,4,6,8,10,12,-1,14,-1,-1,16,-1,18,-1,-1,-1,-1,-1,-1],"split_conditions":[1.3198769E0,9.585606E-1,1.4626702E0,1.9030014E0,-8.8082075E-1,-1.2162282E0,-3.7906176E-4,-1.1977214E0,-8.608282E-4,-1.4928314E-3,-4.8868218E-1,9.131347E-6,-3.4944108E-1,8.149499E-4,7.1979516E-6,-6.333028E-4,2.135677E-5,1.1289854E-3,1.9445097E-3],"split_indices":[12,11,0,22,41,24,0,19,0,0,33,0,40,0,0,0,0,0,0],"split_type":[0,0,0,0,0,0,0,0,0,0,0,0,0,0,0,0,0,0,0],"sum_hessian":[2.1E2,1.91E2,1.9E1,1.79E2,1.2E1,1.4E1,5E0,1.73E2,6E0,4E0,8E0,5E0,9E0,5E0,1.68E2,4E0,4E0,4E0,5E0],"tree_param":{"num_deleted":"0","num_feature":"47","num_nodes":"19","size_leaf_vector":"1"}},{"base_weights":[1.5723802E-3,6.5265964E-3,-8.1119515E-2,9.791071E-4,3.0934557E-3,-6.191097E-6,-1.3341185E-3,-1.2688852E-2,2.4629576E-2,-7.9404126E-5,-1.0684431E-3,3.3893614E-4,-5.1189144E-4],"categories":[],"categories_nodes":[],"categories_segments":[],"categories_sizes":[],"default_left":[0,0,0,0,1,0,0,0,0,0,0,0,0],"id":22,"left_children":[1,3,5,-1,7,-1,-1,9,11,-1,-1,-1,-1],"loss_changes":[9.067116E-2,6.487963E-2,5.123779E-2,0E0,6.944321E-2,0E0,0E0,5.09612E-2,6.1451063E-2,0E0,0E0,0E0,0E0],"parents":[2147483647,0,0,1,1,2,2,4,4,7,7,8,8],"right_children":[2,4,6,-1,8,-1,-1,10,12,-1,-1,-1,-1],"split_conditions":[1.3458962E0,-1.1977214E0,-2.9853642E-1,9.791071E-4,2.4848777E-1,-6.191097E-6,-1.3341185E-3,1.6910092E0,1.7223895E0,-7.9404126E-5,-1.0684431E-3,3.3893614E-4,-5.1189144E-4],"split_indices":[36,19,38,0,32,0,0,34,29,0,0,0,0],"split_type":[0,0,0,0,0,0,0,0,0,0,0,0,0],"sum_hessian":[2.22E2,2.1E2,1.2E1,7E0,2.03E2,5E0,7E0,1.17E2,8.6E1,1.12E2,5E0,7.7E1,9E0],"tree_param":{"num_deleted":"0","num_feature":"47","num_nodes":"13","size_leaf_vector":"1"}},{"base_weights":[1.1498551E-4,4.357446E-3,-1.1989371E-3,1.2785564E-2,-4.1071873E-2,-2.2876947E-3,4.097121E-2,1.9493867E-2,-6.084728E-2,-6.0113503E-5,9.049063E-4,6.256506E-4,-0E0,-1.4685217E-4,5.372919E-4,7.326519E-5,-8.7381323E-4],"categories":[],"categories_nodes":[],"categories_segments":[],"categories_sizes":[],"default_left":[1,0,0,1,0,1,0,0,0,0,0,0,0,0,0,0,0],"id":23,"left_children":[1,3,-1,5,7,9,11,13,15,-1,-1,-1,-1,-1,-1,-1,-1],"loss_changes":[1.1187864E-1,8.210825E-2,0E0,7.754389E-2,4.112996E-2,4.036593E-2,5.585341E-2,1.0731075E-2,4.724828E-2,0E0,0E0,0E0,0E0,0E0,0E0,0E0,0E0],"parents":[2147483647,0,0,1,1,3,3,4,4,5,5,6,6,7,7,8,8],"right_children":[2,4,-1,6,8,10,12,14,16,-1,-1,-1,-1,-1,-1,-1,-1],"split_conditions":[1.570237E0,1.0597553E0,-1.1989371E-3,2.8452092E-1,1.08173564E-1,1.835784E0,2.683573E-1,-1.178418E0,-6.8348825E-1,-6.0113503E-5,9.049063E-4,6.256506E-4,-0E0,-1.4685217E-4,5.372919E-4,7.326519E-5,-8.7381323E-4],"split_indices":[40,36,0,34,8,35,35,25,37,0,0,0,0,0,0,0,0],"split_type":[0,0,0,0,0,0,0,0,0,0,0,0,0,0,0,0,0],"sum_hessian":[2.21E2,2.14E2,7E0,1.81E2,3.3E1,1.18E2,6.3E1,8E0,2.5E1,1.14E2,4E0,4.1E1,2.2E1,4E0,4E0,7E0,1.8E1],"tree_param":{"num_deleted":"0","num_feature":"47","num_nodes":"17","size_leaf_vector":"1"}},{"base_weights":[-1.5809285E-3,-6.602853E-3,7.207378E-2,-1.3860211E-3,-3.7178262E-3,2.7646017E-4,1.1036329E-3,2.5351155E-3,-5.3954747E-2,5.047997E-5,-9.799405E-4,-1.3852265E-3,-2.681416E-4],"categories":[],"categories_nodes":[],"categories_segments":[],"categories_sizes":[],"default_left":[1,1,0,0,0,0,0,0,0,0,0,0,0],"id":24,"left_children":[1,3,5,-1,7,-1,-1,9,11,-1,-1,-1,-1],"loss_changes":[8.410274E-2,8.000535E-2,2.1760553E-2,0E0,6.670665E-2,0E0,0E0,4.6683725E-2,5.0427176E-2,0E0,0E0,0E0,0E0],"parents":[2147483647,0,0,1,1,2,2,4,4,7,7,8,8],"right_children":[2,4,6,-1,8,-1,-1,10,12,-1,-1,-1,-1],"split_conditions":[1.6288673E0,-2.2445219E0,-6.089508E-1,-1.3860211E-3,1.1989151E0,2.7646017E-4,1.1036329E-3,2.0060143E0,-6.142488E-1,5.047997E-5,-9.799405E-4,-1.3852265E-3,-2.681416E-4],"split_indices":[19,39,20,0,36,0,0,40,44,0,0,0,0],"split_type":[0,0,0,0,0,0,0,0,0,0,0,0,0],"sum_hessian":[2.28E2,2.14E2,1.4E1,4E0,2.1E2,7E0,7E0,1.87E2,2.3E1,1.83E2,4E0,5E0,1.8E1],"tree_param":{"num_deleted":"0","num_feature":"47","num_nodes":"13","size_leaf_vector":"1"}},{"base_weights":[-2.2737777E-3,4.7047846E-3,-5.8606457E-2,8.496434E-3,-1.2592308E-3,9.6027106E-5,-8.673592E-2,-5.0568203E-3,3.475962E-2,-1.2864423E-3,-5.1718745E-2,1.278976E-4,-3.718798E-4,2.240489E-4,1.0535565E-3,-7.0959824E-4,-1.595732E-4],"categories":[],"categories_nodes":[],"categories_segments":[],"categories_sizes":[],"default_left":[0,1,0,1,0,0,0,0,0,0,0,0,0,0,0,0,0],"id":25,"left_children":[1,3,5,7,-1,-1,9,11,13,-1,15,-1,-1,-1,-1,-1,-1],"loss_changes":[8.73601E-2,9.668616E-2,4.8195615E-2,6.8549655E-2,0E0,0E0,2.0551145E-2,7.302087E-2,5.4670893E-2,0E0,5.7895947E-3,0E0,0E0,0E0,0E0,0E0,0E0],"parents":[2147483647,0,0,1,1,2,2,3,3,6,6,7,7,8,8,10,10],"right_children":[2,4,6,8,-1,-1,10,12,14,-1,16,-1,-1,-1,-1,-1,-1],"split_conditions":[1.1989151E0,1.6852391E0,-2.8348634E-1,1.9176379E-1,-1.2592308E-3,9.6027106E-5,1.6752513E-1,-1.759732E-1,1.1634542E0,-1.2864423E-3,2.95762E-1,1.278976E-4,-3.718798E-4,2.240489E-4,1.0535565E-3,-7.0959824E-4,-1.595732E-4],"split_indices":[36,35,0,42,0,0,42,42,21,0,3,0,0,0,0,0,0],"split_type":[0,0,0,0,0,0,0,0,0,0,0,0,0,0,0,0,0],"sum_hessian":[2.2E2,1.96E2,2.4E1,1.91E2,5E0,7E0,1.7E1,1.26E2,6.5E1,7E0,1E1,8.1E1,4.5E1,5.6E1,9E0,6E0,4E0],"tree_param":{"num_deleted":"0","num_feature":"47","num_nodes":"17","size_leaf_vector":"1"}},{"base_weights":[3.1701175E-3,6.5071443E-3,-1.0257682E-3,-1.0536902E-3,9.563977E-3,-4.5335814E-2,1.474341E-2,-0E0,-1.2171366E-3,5.527654E-5,4.7650482E-4],"categories":[],"categories_nodes":[],"categories_segments":[],"categories_sizes":[],"default_left":[0,1,0,0,1,1,0,0,0,0,0],"id":26,"left_children":[1,3,-1,-1,5,7,9,-1,-1,-1,-1],"loss_changes":[7.506589E-2,7.0850044E-2,0E0,0E0,5.7893466E-2,6.032401E-2,5.5895172E-2,0E0,0E0,0E0,0E0],"parents":[2147483647,0,0,1,1,4,4,5,5,6,6],"right_children":[2,4,-1,-1,6,8,10,-1,-1,-1,-1],"split_conditions":[2.1724782E0,-2.2445219E0,-1.0257682E-3,-1.0536902E-3,-1.1828564E0,-3.0479705E-1,8.7319434E-1,-0E0,-1.2171366E-3,5.527654E-5,4.7650482E-4],"split_indices":[1,39,0,0,41,17,20,0,0,0,0],"split_type":[0,0,0,0,0,0,0,0,0,0,0],"sum_hessian":[2.14E2,2.08E2,6E0,5E0,2.03E2,1.7E1,1.86E2,1.1E1,6E0,1.46E2,4E1],"tree_param":{"num_deleted":"0","num_feature":"47","num_nodes":"11","size_leaf_vector":"1"}},{"base_weights":[4.698432E-4,4.9843076E-3,-7.730063E-2,8.98905E-3,-8.211894E-2,-1.2554419E-3,-2.668444E-5,-1.0992765E-3,1.163272E-2,-6.094319E-5,-1.3503736E-3,7.808246E-5,8.867149E-4],"categories":[],"categories_nodes":[],"categories_segments":[],"categories_sizes":[],"default_left":[1,0,0,0,0,0,0,0,0,0,0,0,0],"id":27,"left_children":[1,3,5,7,9,-1,-1,-1,11,-1,-1,-1,-1],"loss_changes":[8.0045104E-2,7.5507455E-2,4.35569E-2,6.520395E-2,3.6396675E-2,0E0,0E0,0E0,5.8941424E-2,0E0,0E0,0E0,0E0],"parents":[2147483647,0,0,1,1,2,2,3,3,4,4,8,8],"right_children":[2,4,6,8,10,-1,-1,-1,12,-1,-1,-1,-1],"split_conditions":[1.6935875E0,9.585606E-1,3.8829392E-1,-2.2445219E0,9.594894E-2,-1.2554419E-3,-2.668444E-5,-1.0992765E-3,1.7422513E0,-6.094319E-5,-1.3503736E-3,7.808246E-5,8.867149E-4],"split_indices":[29,11,41,39,4,0,0,0,12,0,0,0,0],"split_type":[0,0,0,0,0,0,0,0,0,0,0,0,0],"sum_hessian":[2.29E2,2.17E2,1.2E1,2.08E2,9E0,7E0,5E0,4E0,2.04E2,4E0,5E0,1.95E2,9E0],"tree_param":{"num_deleted":"0","num_feature":"47","num_nodes":"13","size_leaf_vector":"1"}},{"base_weights":[-3.400767E-3,-1.1259625E-2,4.0474366E-2,-5.104942E-3,-7.676153E-2,6.515498E-2,-6.172153E-4,-6.426798E-2,3.992796E-3,-2.41611E-4,-1.1748183E-1,9.243176E-2,-8.774988E-5,-1.3480778E-3,-1.643825E-5,-1.9026887E-5,5.0748483E-4,-1.5354415E-3,-6.614373E-4,1.1143767E-3,1.4474525E-4],"categories":[],"categories_nodes":[],"categories_segments":[],"categories_sizes":[],"default_left":[1,1,0,0,0,0,0,0,1,0,0,0,0,0,0,0,0,0,0,0,0],"id":28,"left_children":[1,3,5,7,9,11,-1,13,15,-1,17,19,-1,-1,-1,-1,-1,-1,-1,-1,-1],"loss_changes":[7.389712E-2,7.255909E-2,8.4018424E-2,9.088788E-2,3.036385E-2,5.4681264E-2,0E0,9.791835E-2,4.064344E-2,0E0,8.461796E-3,2.6826516E-2,0E0,0E0,0E0,0E0,0E0,0E0,0E0,0E0,0E0],"parents":[2147483647,0,0,1,1,2,2,3,3,4,4,5,5,7,7,8,8,10,10,11,11],"right_children":[2,4,6,8,10,12,-1,14,16,-1,18,20,-1,-1,-1,-1,-1,-1,-1,-1,-1],"split_conditions":[1.026948E0,1.5540121E0,1.4338173E0,-8.6557287E-1,-3.2585078E-1,5.1110685E-1,-6.172153E-4,1.6040753E-1,1.4400128E0,-2.41611E-4,1.0750803E0,1.5414023E0,-8.774988E-5,-1.3480778E-3,-1.643825E-5,-1.9026887E-5,5.0748483E-4,-1.5354415E-3,-6.614373E-4,1.1143767E-3,1.4474525E-4],"split_indices":[21,22,29,46,14,39,0,1,19,0,2,0,0,0,0,0,0,0,0,0,0],"split_type":[0,0,0,0,0,0,0,0,0,0,0,0,0,0,0,0,0,0,0,0,0],"sum_hessian":[2.14E2,1.82E2,3.2E1,1.67E2,1.5E1,2.6E1,6E0,2.2E1,1.45E2,7E0,8E0,1.9E1,7E0,1E1,1.2E1,1.29E2,1.6E1,4E0,4E0,1.5E1,4E0],"tree_param":{"num_deleted":"0","num_feature":"47","num_nodes":"21","size_leaf_vector":"1"}},{"base_weights":[-0E0,-1.6434934E-2,2.0507725E-2,3.4752864E-2,-2.612279E-2,2.9798768E-2,-6.136612E-2,1.1449144E-2,1.1411618E-3,-1.1609863E-2,-5.9574407E-2,4.970574E-2,-0E0,-1.2872495E-4,-1.2237178E-3,-5.8375004E-5,4.003148E-4,-3.65604E-4,6.51817E-5,-2.6956174E-4,-1.2568136E-3,3.924866E-4,1.3938388E-3,5.1498535E-4,-1.9746077E-4],"categories":[],"categories_nodes":[],"categories_segments":[],"categories_sizes":[],"default_left":[1,0,0,0,0,0,0,0,0,0,1,0,0,0,0,0,0,0,0,0,0,0,0,0,0],"id":29,"left_children":[1,3,5,7,9,11,13,15,-1,17,19,21,23,-1,-1,-1,-1,-1,-1,-1,-1,-1,-1,-1,-1],"loss_changes":[7.781686E-2,6.409077E-2,7.856972E-2,3.600502E-2,5.161702E-2,5.4984763E-2,2.8922986E-2,8.611311E-3,0E0,3.502085E-2,6.685918E-2,4.752466E-2,3.85695E-2,0E0,0E0,0E0,0E0,0E0,0E0,0E0,0E0,0E0,0E0,0E0,0E0],"parents":[2147483647,0,0,1,1,2,2,3,3,4,4,5,5,6,6,7,7,9,9,10,10,11,11,12,12],"right_children":[2,4,6,8,10,12,14,16,-1,18,20,22,24,-1,-1,-1,-1,-1,-1,-1,-1,-1,-1,-1,-1],"split_conditions":[7.7490695E-2,-9.509364E-1,1.6935875E0,9.928221E-3,1.0295035E-1,5.576604E-1,-4.3939123E-1,-2.0653717E-1,1.1411618E-3,-1.1453306E-1,-6.572867E-2,1.9299732E0,-7.065186E-2,-1.2872495E-4,-1.2237178E-3,-5.8375004E-5,4.003148E-4,-3.65604E-4,6.51817E-5,-2.6956174E-4,-1.2568136E-3,3.924866E-4,1.3938388E-3,5.1498535E-4,-1.9746077E-4],"split_indices":[17,19,29,33,28,38,14,40,0,31,29,12,33,0,0,0,0,0,0,0,0,0,0,0,0],"split_type":[0,0,0,0,0,0,0,0,0,0,0,0,0,0,0,0,0,0,0,0,0,0,0,0,0],"sum_hessian":[2.3E2,1.28E2,1.02E2,2E1,1.08E2,9.2E1,1E1,1.6E1,4E0,7.6E1,3.2E1,5.5E1,3.7E1,6E0,4E0,1E1,6E0,3.2E1,4.4E1,2.2E1,1E1,5E1,5E0,1E1,2.7E1],"tree_param":{"num_deleted":"0","num_feature":"47","num_nodes":"25","size_leaf_vector":"1"}},{"base_weights":[-2.6087608E-4,-1.6000973E-2,2.1498399E-2,-1.1799826E-2,-1.2823258E-3,-3.7823957E-3,4.787397E-2,-1.571162E-2,9.20382E-4,-4.0187795E-2,2.5448067E-2,6.0357444E-2,-7.0348516E-4,-1.0692093E-4,-8.929303E-4,3.7256224E-4,-6.5390713E-4,8.191631E-5,8.87734E-4,4.7187935E-4,1.2610188E-3],"categories":[],"categories_nodes":[],"categories_segments":[],"categories_sizes":[],"default_left":[1,1,0,1,0,0,0,1,0,0,0,0,0,0,0,0,0,0,0,0,0],"id":30,"left_children":[1,3,5,7,-1,9,11,13,-1,15,17,19,-1,-1,-1,-1,-1,-1,-1,-1,-1],"loss_changes":[7.563675E-2,5.843104E-2,6.2210027E-2,5.053079E-2,0E0,5.120571E-2,6.917327E-2,4.3028723E-2,0E0,4.3463487E-2,2.762514E-2,3.1223476E-2,0E0,0E0,0E0,0E0,0E0,0E0,0E0,0E0,0E0],"parents":[2147483647,0,0,1,1,2,2,3,3,5,5,6,6,7,7,9,9,10,10,11,11],"right_children":[2,4,6,8,-1,10,12,14,-1,16,18,20,-1,-1,-1,-1,-1,-1,-1,-1,-1],"split_conditions":[1.6640723E-1,1.5780269E0,2.5310728E-1,1.6028746E0,-1.2823258E-3,-2.7861271E-2,1.1613184E0,9.617048E-2,9.20382E-4,-1.1532761E0,7.408163E-1,1.6953208E0,-7.0348516E-4,-1.0692093E-4,-8.929303E-4,3.7256224E-4,-6.5390713E-4,8.191631E-5,8.87734E-4,4.7187935E-4,1.2610188E-3],"split_indices":[32,34,34,21,0,37,33,32,0,16,21,12,0,0,0,0,0,0,0,0,0],"split_type":[0,0,0,0,0,0,0,0,0,0,0,0,0,0,0,0,0,0,0,0,0],"sum_hessian":[2.2E2,1.28E2,9.2E1,1.24E2,4E0,4.7E1,4.5E1,1.2E2,4E0,2.1E1,2.6E1,4.1E1,4E0,1.13E2,7E0,5E0,1.6E1,2.1E1,5E0,3.5E1,6E0],"tree_param":{"num_deleted":"0","num_feature":"47","num_nodes":"21","size_leaf_vector":"1"}},{"base_weights":[-1.9498405E-3,2.3876913E-3,-7.025173E-2,-1.0465755E-3,4.763041E-3,-2.89733E-2,-1.4736712E-3,1.2558579E-2,-2.7097171E-2,3.4034962E-4,-7.970976E-4,-4.8626986E-5,3.1324557E-4,-1.6213383E-4,-1.1014376E-3],"categories":[],"categories_nodes":[],"categories_segments":[],"categories_sizes":[],"default_left":[0,1,0,0,0,0,0,1,0,0,0,0,0,0,0],"id":31,"left_children":[1,3,5,-1,7,9,-1,11,13,-1,-1,-1,-1,-1,-1],"loss_changes":[6.697699E-2,5.2774116E-2,3.9074972E-2,0E0,5.131265E-2,3.218296E-2,0E0,5.4774173E-2,3.4449913E-2,0E0,0E0,0E0,0E0,0E0,0E0],"parents":[2147483647,0,0,1,1,2,2,4,4,5,5,7,7,8,8],"right_children":[2,4,6,-1,8,10,-1,12,14,-1,-1,-1,-1,-1,-1],"split_conditions":[1.3458962E0,-2.2445219E0,-4.6666583E-1,-1.0465755E-3,8.4561414E-1,-2.7589482E-1,-1.4736712E-3,-2.7699882E-2,2.2375808E0,3.4034962E-4,-7.970976E-4,-4.8626986E-5,3.1324557E-4,-1.6213383E-4,-1.1014376E-3],"split_indices":[36,39,27,0,33,19,0,34,3,0,0,0,0,0,0],"split_type":[0,0,0,0,0,0,0,0,0,0,0,0,0,0,0],"sum_hessian":[2.23E2,2.1E2,1.3E1,4E0,2.06E2,9E0,4E0,1.66E2,4E1,4E0,5E0,8.6E1,8E1,3.6E1,4E0],"tree_param":{"num_deleted":"0","num_feature":"47","num_nodes":"15","size_leaf_vector":"1"}},{"base_weights":[-1.1066595E-3,1.0073558E-2,-4.106613E-2,-1.0727551E-3,1.3236965E-2,-8.500163E-2,-1.9826327E-2,9.308078E-3,9.5623184E-4,-4.3433614E-2,-1.5481316E-3,2.8625405E-3,-5.4286223E-2,1.9209732E-4,-1.067292E-4,-8.1597356E-4,-1.2133052E-4,4.575286E-4,-8.315503E-5,-1.5197105E-4,-9.367472E-4],"categories":[],"categories_nodes":[],"categories_segments":[],"categories_sizes":[],"default_left":[0,0,0,0,1,0,0,0,0,0,0,0,0,0,0,0,0,0,0,0,0],"id":32,"left_children":[1,3,5,-1,7,9,11,13,-1,15,-1,17,19,-1,-1,-1,-1,-1,-1,-1,-1],"loss_changes":[9.902636E-2,6.380556E-2,4.3368384E-2,0E0,5.304677E-2,3.9635338E-2,2.678411E-2,3.2139834E-2,0E0,1.1110419E-2,0E0,1.03929145E-2,1.8984921E-2,0E0,0E0,0E0,0E0,0E0,0E0,0E0,0E0],"parents":[2147483647,0,0,1,1,2,2,4,4,5,5,6,6,7,7,9,9,11,11,12,12],"right_children":[2,4,6,-1,8,10,12,14,-1,16,-1,18,20,-1,-1,-1,-1,-1,-1,-1,-1],"split_conditions":[9.616865E-1,-2.2445219E0,-5.405394E-1,-1.0727551E-3,1.4627895E0,1.142703E0,1.5261813E0,2.8973246E-1,9.5623184E-4,7.7226907E-1,-1.5481316E-3,-5.621256E-1,-3.004917E-1,1.9209732E-4,-1.067292E-4,-8.1597356E-4,-1.2133052E-4,4.575286E-4,-8.315503E-5,-1.5197105E-4,-9.367472E-4],"split_indices":[36,39,44,0,35,36,10,35,0,11,0,41,16,0,0,0,0,0,0,0,0],"split_type":[0,0,0,0,0,0,0,0,0,0,0,0,0,0,0,0,0,0,0,0,0],"sum_hessian":[2.2E2,1.72E2,4.8E1,4E0,1.68E2,1.5E1,3.3E1,1.61E2,7E0,1E1,5E0,2E1,1.3E1,1.08E2,5.3E1,4E0,6E0,4E0,1.6E1,7E0,6E0],"tree_param":{"num_deleted":"0","num_feature":"47","num_nodes":"21","size_leaf_vector":"1"}},{"base_weights":[-7.460368E-4,4.0862113E-3,-7.537465E-2,9.0459185E-3,-7.95369E-2,-1.3265925E-3,-1.9369673E-4,3.308764E-3,7.057902E-2,-3.2814045E-4,-1.4634867E-3,7.5521466E-4,-1.1153528E-5,1.3908359E-3,1.1729145E-4],"categories":[],"categories_nodes":[],"categories_segments":[],"categories_sizes":[],"default_left":[0,1,0,0,0,0,0,0,0,0,0,0,0,0,0],"id":33,"left_children":[1,3,5,7,9,-1,-1,11,13,-1,-1,-1,-1,-1,-1],"loss_changes":[8.002385E-2,8.52999E-2,4.050593E-2,6.816072E-2,3.1706057E-2,0E0,0E0,5.813238E-2,6.4195715E-2,0E0,0E0,0E0,0E0,0E0,0E0],"parents":[2147483647,0,0,1,1,2,2,3,3,4,4,7,7,8,8],"right_children":[2,4,6,8,10,-1,-1,12,14,-1,-1,-1,-1,-1,-1],"split_conditions":[9.585606E-1,1.8860645E0,-5.3006667E-1,1.3668075E0,1.5293709E0,-1.3265925E-3,-1.9369673E-4,-1.1973665E0,7.662109E-2,-3.2814045E-4,-1.4634867E-3,7.5521466E-4,-1.1153528E-5,1.3908359E-3,1.1729145E-4],"split_indices":[11,22,39,12,3,0,0,19,39,0,0,0,0,0,0],"split_type":[0,0,0,0,0,0,0,0,0,0,0,0,0,0,0],"sum_hessian":[2.19E2,2.06E2,1.3E1,1.95E2,1.1E1,6E0,7E0,1.79E2,1.6E1,7E0,4E0,1E1,1.69E2,7E0,9E0],"tree_param":{"num_deleted":"0","num_feature":"47","num_nodes":"15","size_leaf_vector":"1"}},{"base_weights":[-1.3935278E-3,1.6839775E-3,-1.0485593E-3,-4.6046777E-3,5.9000324E-2,-8.286706E-3,7.5277746E-2,-0E0,1.00966625E-1,-4.5905344E-5,-1.0875064E-3,2.6148706E-4,1.1382037E-3,1.0266444E-3,-8.283014E-4,4.2792963E-4,1.3556286E-3],"categories":[],"categories_nodes":[],"categories_segments":[],"categories_sizes":[],"default_left":[0,1,0,1,0,1,0,0,0,0,0,0,0,0,0,0,0],"id":34,"left_children":[1,3,-1,5,7,9,11,13,15,-1,-1,-1,-1,-1,-1,-1,-1],"loss_changes":[7.164696E-2,7.835521E-2,0E0,5.6850154E-2,5.2585922E-2,6.787038E-2,1.3207458E-2,8.516452E-2,2.0473257E-2,0E0,0E0,0E0,0E0,0E0,0E0,0E0,0E0],"parents":[2147483647,0,0,1,1,3,3,4,4,5,5,6,6,7,7,8,8],"right_children":[2,4,-1,6,8,10,12,14,16,-1,-1,-1,-1,-1,-1,-1,-1],"split_conditions":[2.6309752E0,1.2507892E0,-1.0485593E-3,1.9681911E0,-1.4491028E-1,1.6852391E0,2.2001824E-1,3.5051796E-1,-6.553168E-1,-4.5905344E-5,-1.0875064E-3,2.6148706E-4,1.1382037E-3,1.0266444E-3,-8.283014E-4,4.2792963E-4,1.3556286E-3],"split_indices":[3,21,0,19,37,35,4,35,16,0,0,0,0,0,0,0,0],"split_type":[0,0,0,0,0,0,0,0,0,0,0,0,0,0,0,0,0],"sum_hessian":[2.21E2,2.15E2,6E0,1.94E2,2.1E1,1.86E2,8E0,9E0,1.2E1,1.8E2,6E0,4E0,4E0,4E0,5E0,5E0,7E0],"tree_param":{"num_deleted":"0","num_feature":"47","num_nodes":"17","size_leaf_vector":"1"}},{"base_weights":[6.824086E-4,5.8769304E-3,-9.4011724E-2,9.329211E-3,-7.594397E-2,-1.1359129E-4,-1.360025E-3,-4.7085965E-3,2.845959E-2,-2.9058196E-4,-1.121693E-3,4.423966E-5,-6.559462E-4,1.4757835E-4,7.4646185E-4],"categories":[],"categories_nodes":[],"categories_segments":[],"categories_sizes":[],"default_left":[0,1,0,1,0,0,0,1,0,0,0,0,0,0,0],"id":35,"left_children":[1,3,5,7,9,-1,-1,11,13,-1,-1,-1,-1,-1,-1],"loss_changes":[1.0884059E-1,5.9430234E-2,3.7666388E-2,5.4954153E-2,1.1394855E-2,0E0,0E0,6.609214E-2,5.3295597E-2,0E0,0E0,0E0,0E0,0E0,0E0],"parents":[2147483647,0,0,1,1,2,2,3,3,4,4,7,7,8,8],"right_children":[2,4,6,8,10,-1,-1,12,14,-1,-1,-1,-1,-1,-1],"split_conditions":[1.3458962E0,1.4695731E0,-1.4485417E-1,7.7490695E-2,2.7862638E-1,-1.1359129E-4,-1.360025E-3,7.293774E-2,5.244039E-1,-2.9058196E-4,-1.121693E-3,4.423966E-5,-6.559462E-4,1.4757835E-4,7.4646185E-4],"split_indices":[36,33,28,17,3,0,0,29,42,0,0,0,0,0,0],"split_type":[0,0,0,0,0,0,0,0,0,0,0,0,0,0,0],"sum_hessian":[2.22E2,2.11E2,1.1E1,2.03E2,8E0,4E0,7E0,1.17E2,8.6E1,4E0,4E0,1.02E2,1.5E1,6.7E1,1.9E1],"tree_param":{"num_deleted":"0","num_feature":"47","num_nodes":"15","size_leaf_vector":"1"}},{"base_weights":[1.5197833E-3,-1.3265685E-3,4.3126536E-3,1.0654918E-2,-5.3877853E-2,7.655525E-3,9.712503E-4,1.8696766E-4,-8.3219536E-2,1.3966874E-4,-3.7604116E-4,-2.4377508E-4,-1.1804726E-3],"categories":[],"categories_nodes":[],"categories_segments":[],"categories_sizes":[],"default_left":[1,0,0,0,0,0,0,0,0,0,0,0,0],"id":36,"left_children":[1,-1,3,5,7,9,-1,-1,11,-1,-1,-1,-1],"loss_changes":[8.275654E-2,0E0,8.086338E-2,5.0062962E-2,4.7206614E-2,5.501375E-2,0E0,0E0,2.8901584E-2,0E0,0E0,0E0,0E0],"parents":[2147483647,0,0,2,2,3,3,4,4,5,5,8,8],"right_children":[2,-1,4,6,8,10,-1,-1,12,-1,-1,-1,-1],"split_conditions":[-2.0015771E0,-1.3265685E-3,1.1989151E0,1.7520478E0,-6.523469E-1,1.0288113E0,9.712503E-4,1.8696766E-4,-9.450112E-1,1.3966874E-4,-3.7604116E-4,-2.4377508E-4,-1.1804726E-3],"split_indices":[39,0,36,20,32,33,0,0,20,0,0,0,0],"split_type":[0,0,0,0,0,0,0,0,0,0,0,0,0],"sum_hessian":[2.23E2,4E0,2.19E2,1.98E2,2.1E1,1.92E2,6E0,6E0,1.5E1,1.69E2,2.3E1,6E0,9E0],"tree_param":{"num_deleted":"0","num_feature":"47","num_nodes":"13","size_leaf_vector":"1"}},{"base_weights":[6.1058253E-4,-6.1772424E-3,6.278335E-2,-2.641046E-4,-5.902751E-2,1.4072479E-2,1.3527808E-1,2.9739481E-3,-1.0302665E-3,-1.2412297E-3,-3.161104E-2,1.1565868E-3,-3.3735327E-2,1.6723591E-3,8.606711E-4,4.0894657E-4,-2.1010454E-5,2.6738853E-4,-5.606523E-4,9.5217394E-5,-6.787881E-4],"categories":[],"categories_nodes":[],"categories_segments":[],"categories_sizes":[],"default_left":[0,0,0,1,0,0,0,0,0,0,0,0,0,0,0,0,0,0,0,0,0],"id":37,"left_children":[1,3,5,7,9,11,13,15,-1,-1,17,-1,19,-1,-1,-1,-1,-1,-1,-1,-1],"loss_changes":[9.212685E-2,6.0495168E-2,7.347717E-2,5.9884194E-2,3.1282254E-2,6.8334416E-2,3.6379695E-3,3.3435617E-2,0E0,0E0,2.1732861E-2,0E0,1.4937727E-2,0E0,0E0,0E0,0E0,0E0,0E0,0E0,0E0],"parents":[2147483647,0,0,1,1,2,2,3,3,4,4,5,5,6,6,7,7,10,10,12,12],"right_children":[2,4,6,8,10,12,14,16,-1,-1,18,-1,20,-1,-1,-1,-1,-1,-1,-1,-1],"split_conditions":[1.3198769E0,1.2351937E0,5.244039E-1,1.6852391E0,-5.9161425E-1,-2.4553779E-1,2.2263063E-1,-1.1290274E0,-1.0302665E-3,-1.2412297E-3,-9.7363365E-1,1.1565868E-3,1.0227302E0,1.6723591E-3,8.606711E-4,4.0894657E-4,-2.1010454E-5,2.6738853E-4,-5.606523E-4,9.5217394E-5,-6.787881E-4],"split_indices":[12,36,42,35,18,42,38,22,0,0,17,0,21,0,0,0,0,0,0,0,0],"split_type":[0,0,0,0,0,0,0,0,0,0,0,0,0,0,0,0,0,0,0,0,0],"sum_hessian":[2.16E2,1.95E2,2.1E1,1.76E2,1.9E1,1.3E1,8E0,1.71E2,5E0,5E0,1.4E1,4E0,9E0,4E0,4E0,2E1,1.51E2,4E0,1E1,4E0,5E0],"tree_param":{"num_deleted":"0","num_feature":"47","num_nodes":"21","size_leaf_vector":"1"}},{"base_weights":[3.3869548E-3,9.450748E-3,-5.6106288E-2,1.4065147E-2,-7.4644245E-2,-9.967958E-2,-0E0,4.585628E-3,3.724355E-2,1.127578E-5,-1.454484E-3,-5.5319956E-4,-1.2800853E-3,3.8052327E-4,-4.7367E-4,7.3468644E-4,-1.0266425E-5,7.636101E-4,1.2036382E-4],"categories":[],"categories_nodes":[],"categories_segments":[],"categories_sizes":[],"default_left":[0,1,0,1,0,0,0,0,0,0,0,0,0,0,0,0,0,0,0],"id":38,"left_children":[1,3,5,7,9,11,13,15,17,-1,-1,-1,-1,-1,-1,-1,-1,-1,-1],"loss_changes":[8.006649E-2,7.849886E-2,4.9731955E-2,4.1792434E-2,5.7857297E-2,9.077609E-3,1.8060237E-2,5.391828E-2,5.3381726E-2,0E0,0E0,0E0,0E0,0E0,0E0,0E0,0E0,0E0,0E0],"parents":[2147483647,0,0,1,1,2,2,3,3,4,4,5,5,6,6,7,7,8,8],"right_children":[2,4,6,8,10,12,14,16,18,-1,-1,-1,-1,-1,-1,-1,-1,-1,-1],"split_conditions":[1.5270888E0,1.4335493E0,4.1199368E-1,3.6401615E-1,-2.1473326E-1,6.23308E-1,2.2250702E0,-1.1282775E0,3.911347E-1,1.127578E-5,-1.454484E-3,-5.5319956E-4,-1.2800853E-3,3.8052327E-4,-4.7367E-4,7.3468644E-4,-1.0266425E-5,7.636101E-4,1.2036382E-4],"split_indices":[10,40,27,29,1,26,0,22,38,0,0,0,0,0,0,0,0,0,0],"split_type":[0,0,0,0,0,0,0,0,0,0,0,0,0,0,0,0,0,0,0],"sum_hessian":[2.22E2,2.02E2,2E1,1.92E2,1E1,1.1E1,9E0,1.37E2,5.5E1,5E0,5E0,5E0,6E0,5E0,4E0,1E1,1.27E2,2.1E1,3.4E1],"tree_param":{"num_deleted":"0","num_feature":"47","num_nodes":"19","size_leaf_vector":"1"}},{"base_weights":[7.2545523E-4,2.0995004E-2,-1.7213477E-2,8.963528E-3,5.775313E-2,-1.0141699E-1,-6.11347E-3,6.0903862E-2,-3.601457E-3,9.988383E-4,2.7469113E-2,-2.1112438E-3,-1.2870431E-4,1.2524638E-2,-4.5089323E-2,1.7609568E-4,1.2833002E-3,1.1003473E-4,-8.210127E-4,-4.8849157E-5,5.9325196E-4,4.003032E-4,-1.2480907E-4,-6.954541E-5,-7.89405E-4],"categories":[],"categories_nodes":[],"categories_segments":[],"categories_sizes":[],"default_left":[0,1,0,0,0,0,0,0,1,0,0,0,0,0,0,0,0,0,0,0,0,0,0,0,0],"id":39,"left_children":[1,3,5,7,9,11,13,15,17,-1,19,-1,-1,21,23,-1,-1,-1,-1,-1,-1,-1,-1,-1,-1],"loss_changes":[7.457759E-2,4.1751556E-2,1.0002527E-1,4.8650965E-2,2.7337953E-2,1.1782907E-1,7.07091E-2,3.9738618E-2,6.937848E-2,0E0,1.5634058E-2,0E0,0E0,4.5575846E-2,3.9530136E-2,0E0,0E0,0E0,0E0,0E0,0E0,0E0,0E0,0E0,0E0],"parents":[2147483647,0,0,1,1,2,2,3,3,4,4,5,5,6,6,7,7,8,8,10,10,13,13,14,14],"right_children":[2,4,6,8,10,12,14,16,18,-1,20,-1,-1,22,24,-1,-1,-1,-1,-1,-1,-1,-1,-1,-1],"split_conditions":[-2.5557652E-1,3.1528622E-1,-8.6557287E-1,-6.8084383E-1,-2.1695329E-1,1.2275772E-1,-2.4161407E-1,-8.916455E-1,1.5923776E-1,9.988383E-4,7.1559215E-1,-2.1112438E-3,-1.2870431E-4,1.155795E-1,-9.481845E-2,1.7609568E-4,1.2833002E-3,1.1003473E-4,-8.210127E-4,-4.8849157E-5,5.9325196E-4,4.003032E-4,-1.2480907E-4,-6.954541E-5,-7.89405E-4],"split_indices":[3,32,46,35,33,2,14,35,19,0,20,0,0,39,46,0,0,0,0,0,0,0,0,0,0],"split_type":[0,0,0,0,0,0,0,0,0,0,0,0,0,0,0,0,0,0,0,0,0,0,0,0,0],"sum_hessian":[2.04E2,9.6E1,1.08E2,7.3E1,2.3E1,1.2E1,9.6E1,1.4E1,5.9E1,9E0,1.4E1,5E0,7E0,6.5E1,3.1E1,9E0,5E0,5E1,9E0,7E0,7E0,3.1E1,3.4E1,1.5E1,1.6E1],"tree_param":{"num_deleted":"0","num_feature":"47","num_nodes":"25","size_leaf_vector":"1"}},{"base_weights":[-2.1535892E-4,4.9246973E-3,-9.33731E-2,-1.0432214E-3,7.3896283E-3,-2.3162502E-4,-1.2794125E-3,1.1176559E-2,-6.908047E-2,7.4363046E-4,7.476034E-5,-1.4636293E-3,-0E0],"categories":[],"categories_nodes":[],"categories_segments":[],"categories_sizes":[],"default_left":[0,0,0,0,1,0,0,0,0,0,0,0,0],"id":40,"left_children":[1,3,5,-1,7,-1,-1,9,11,-1,-1,-1,-1],"loss_changes":[1.0526123E-1,5.502366E-2,2.4918318E-2,0E0,5.8448374E-2,0E0,0E0,4.414843E-2,5.1064413E-2,0E0,0E0,0E0,0E0],"parents":[2147483647,0,0,1,1,2,2,4,4,7,7,8,8],"right_children":[2,4,6,-1,8,-1,-1,10,12,-1,-1,-1,-1],"split_conditions":[1.3458962E0,-2.2445219E0,-7.3287696E-1,-1.0432214E-3,1.570237E0,-2.3162502E-4,-1.2794125E-3,-1.1973665E0,-4.0660724E-2,7.4363046E-4,7.476034E-5,-1.4636293E-3,-0E0],"split_indices":[36,39,28,0,40,0,0,19,37,0,0,0,0],"split_type":[0,0,0,0,0,0,0,0,0,0,0,0,0],"sum_hessian":[2.17E2,2.06E2,1.1E1,4E0,2.02E2,4E0,7E0,1.93E2,9E0,1E1,1.83E2,4E0,5E0],"tree_param":{"num_deleted":"0","num_feature":"47","num_nodes":"13","size_leaf_vector":"1"}},{"base_weights":[-3.8262603E-3,2.2198223E-3,-7.044348E-2,-1.3294057E-3,5.328698E-3,-4.6281517E-2,-1.3824942E-3,-1.0014004E-2,2.5367884E-2,-8.0437094E-2,4.0512573E-6,1.296707E-4,-2.7371757E-4,-4.8095675E-4,3.226465E-4,-1.1750866E-3,-3.2205845E-4],"categories":[],"categories_nodes":[],"categories_segments":[],"categories_sizes":[],"default_left":[0,0,0,0,1,0,0,0,0,0,0,0,0,0,0,0,0],"id":41,"left_children":[1,3,5,-1,7,9,-1,11,13,15,-1,-1,-1,-1,-1,-1,-1],"loss_changes":[8.957191E-2,8.416795E-2,2.5264509E-2,0E0,6.131042E-2,2.3938445E-2,0E0,4.5197748E-2,4.444375E-2,1.180869E-2,0E0,0E0,0E0,0E0,0E0,0E0,0E0],"parents":[2147483647,0,0,1,1,2,2,4,4,5,5,7,7,8,8,9,9],"right_children":[2,4,6,-1,8,10,-1,12,14,16,-1,-1,-1,-1,-1,-1,-1],"split_conditions":[1.2351937E0,-1.023354E0,-3.6421782E-1,-1.3294057E-3,8.504957E-2,4.3057807E-2,-1.3824942E-3,-5.231074E-1,-1.2377638E0,-6.779669E-1,4.0512573E-6,1.296707E-4,-2.7371757E-4,-4.8095675E-4,3.226465E-4,-1.1750866E-3,-3.2205845E-4],"split_indices":[36,26,27,0,17,39,0,17,36,20,0,0,0,0,0,0,0],"split_type":[0,0,0,0,0,0,0,0,0,0,0,0,0,0,0,0,0],"sum_hessian":[2.2E2,2.02E2,1.8E1,4E0,1.98E2,1.4E1,4E0,1.12E2,8.6E1,8E0,6E0,4.8E1,6.4E1,7E0,7.9E1,4E0,4E0],"tree_param":{"num_deleted":"0","num_feature":"47","num_nodes":"17","size_leaf_vector":"1"}},{"base_weights":[-8.222144E-5,7.130835E-3,-3.565677E-2,-1.0318585E-3,9.856362E-3,1.9738546E-2,-5.8537412E-2,-2.9341036E-3,3.326907E-2,6.1536644E-4,-1.5608962E-4,-1.3750704E-3,-3.283642E-2,-1.0344164E-3,9.078961E-6,5.4399215E-4,-1.395318E-4,-1.2105412E-4,-7.820755E-4],"categories":[],"categories_nodes":[],"categories_segments":[],"categories_sizes":[],"default_left":[0,0,0,0,1,0,0,0,0,0,0,0,0,0,0,0,0,0,0],"id":42,"left_children":[1,3,5,-1,7,9,11,13,15,-1,-1,-1,17,-1,-1,-1,-1,-1,-1],"loss_changes":[5.853257E-2,5.6251727E-2,4.976371E-2,0E0,5.5602428E-2,1.7930312E-2,5.1852897E-2,4.721721E-2,6.6140726E-2,0E0,0E0,0E0,1.8846171E-2,0E0,0E0,0E0,0E0,0E0,0E0],"parents":[2147483647,0,0,1,1,2,2,4,4,5,5,6,6,7,7,8,8,12,12],"right_children":[2,4,6,-1,8,10,12,14,16,-1,-1,-1,18,-1,-1,-1,-1,-1,-1],"split_conditions":[1.0597553E0,-2.2445219E0,1.12721615E-1,-1.0318585E-3,2.8452092E-1,-2.842295E-1,-5.405394E-1,-2.1580498E0,2.683573E-1,6.1536644E-4,-1.5608962E-4,-1.3750704E-3,2.4054357E-1,-1.0344164E-3,9.078961E-6,5.4399215E-4,-1.395318E-4,-1.2105412E-4,-7.820755E-4],"split_indices":[36,39,9,0,34,19,44,35,35,0,0,0,16,0,0,0,0,0,0],"split_type":[0,0,0,0,0,0,0,0,0,0,0,0,0,0,0,0,0,0,0],"sum_hessian":[2.26E2,1.88E2,3.8E1,4E0,1.84E2,1.1E1,2.7E1,1.19E2,6.5E1,5E0,6E0,6E0,2.1E1,4E0,1.15E2,4.5E1,2E1,1.5E1,6E0],"tree_param":{"num_deleted":"0","num_feature":"47","num_nodes":"19","size_leaf_vector":"1"}},{"base_weights":[-8.561618E-4,3.0502318E-3,-9.4586775E-2,7.423199E-2,-8.084293E-4,-1.6886656E-3,-7.575135E-5,1.1206357E-3,9.116156E-5,-7.180974E-3,4.4475738E-2,-1.1692509E-4,7.725337E-4,7.471384E-5,1.3914318E-3],"categories":[],"categories_nodes":[],"categories_segments":[],"categories_sizes":[],"default_left":[1,0,0,0,1,0,0,0,0,1,0,0,0,0,0],"id":43,"left_children":[1,3,5,7,9,-1,-1,-1,-1,11,13,-1,-1,-1,-1],"loss_changes":[7.776777E-2,5.61095E-2,5.253323E-2,2.4143476E-2,5.5048928E-2,0E0,0E0,0E0,0E0,6.39825E-2,8.033708E-2,0E0,0E0,0E0,0E0],"parents":[2147483647,0,0,1,1,2,2,3,3,4,4,9,9,10,10],"right_children":[2,4,6,8,10,-1,-1,-1,-1,12,14,-1,-1,-1,-1],"split_conditions":[1.570237E0,-1.1973665E0,-3.5324535E-1,4.373475E-1,1.1634542E0,-1.6886656E-3,-7.575135E-5,1.1206357E-3,9.116156E-5,1.6288673E0,4.678923E-1,-1.1692509E-4,7.725337E-4,7.471384E-5,1.3914318E-3],"split_indices":[40,19,37,37,21,0,0,0,0,19,42,0,0,0,0],"split_type":[0,0,0,0,0,0,0,0,0,0,0,0,0,0,0],"sum_hessian":[2.09E2,2.01E2,8E0,1E1,1.91E2,4E0,4E0,6E0,4E0,1.68E2,2.3E1,1.6E2,8E0,1.7E1,6E0],"tree_param":{"num_deleted":"0","num_feature":"47","num_nodes":"15","size_leaf_vector":"1"}},{"base_weights":[3.5906588E-3,-9.817346E-4,6.367712E-3,1.0563503E-2,-6.363834E-2,2.1723676E-2,-1.7201645E-2,1.4860318E-4,-1.0782831E-3,2.623201E-4,-3.9822745E-4,-1.1324233E-3,-4.2144668E-5],"categories":[],"categories_nodes":[],"categories_segments":[],"categories_sizes":[],"default_left":[1,0,0,0,0,0,0,0,0,0,0,0,0],"id":44,"left_children":[1,-1,3,5,7,9,11,-1,-1,-1,-1,-1,-1],"loss_changes":[5.860012E-2,0E0,5.9873324E-2,6.0190722E-2,4.1622672E-2,3.881626E-2,6.781182E-2,0E0,0E0,0E0,0E0,0E0,0E0],"parents":[2147483647,0,0,2,2,3,3,4,4,5,5,6,6],"right_children":[2,-1,4,6,8,10,12,-1,-1,-1,-1,-1,-1],"split_conditions":[-2.2445219E0,-9.817346E-4,1.3684149E0,1.3521602E0,-9.797166E-1,1.6935875E0,-9.780236E-1,1.4860318E-4,-1.0782831E-3,2.623201E-4,-3.9822745E-4,-1.1324233E-3,-4.2144668E-5],"split_indices":[39,0,36,24,12,29,18,0,0,0,0,0,0],"split_type":[0,0,0,0,0,0,0,0,0,0,0,0,0],"sum_hessian":[2.09E2,5E0,2.04E2,1.93E2,1.1E1,1.38E2,5.5E1,4E0,7E0,1.29E2,9E0,6E0,4.9E1],"tree_param":{"num_deleted":"0","num_feature":"47","num_nodes":"13","size_leaf_vector":"1"}},{"base_weights":[8.0193195E-4,1.9802073E-2,-1.5770007E-2,3.7762348E-2,-8.597696E-4,-2.7990047E-2,5.6311145E-2,1.5055898E-2,7.977304E-2,5.0290402E-2,-1.7699124E-2,-6.731476E-2,-1.0704294E-2,1.8673072E-2,9.889863E-4,-1.0487096E-4,4.2199748E-4,9.158741E-5,1.0484651E-3,-2.8690698E-5,1.1036156E-3,4.5474782E-4,-2.676049E-4,-0E0,-9.258106E-4,-9.759356E-4,1.4264648E-5,4.6321444E-4,-1.4971948E-4],"categories":[],"categories_nodes":[],"categories_segments":[],"categories_sizes":[],"default_left":[0,0,0,0,0,0,0,0,0,0,0,0,0,0,0,0,0,0,0,0,0,0,0,0,0,0,0,0,0],"id":45,"left_children":[1,3,5,7,9,11,13,15,17,19,21,23,25,27,-1,-1,-1,-1,-1,-1,-1,-1,-1,-1,-1,-1,-1,-1,-1],"loss_changes":[6.710616E-2,3.730894E-2,1.00479595E-1,4.9485557E-2,4.0171254E-2,6.513586E-2,2.4348933E-2,2.5151808E-2,3.1134926E-2,3.7956774E-2,2.0743009E-2,5.060926E-2,7.3232524E-2,9.497442E-3,0E0,0E0,0E0,0E0,0E0,0E0,0E0,0E0,0E0,0E0,0E0,0E0,0E0,0E0,0E0],"parents":[2147483647,0,0,1,1,2,2,3,3,4,4,5,5,6,6,7,7,8,8,9,9,10,10,11,11,12,12,13,13],"right_children":[2,4,6,8,10,12,14,16,18,20,22,24,26,28,-1,-1,-1,-1,-1,-1,-1,-1,-1,-1,-1,-1,-1,-1,-1],"split_conditions":[-2.5557652E-1,-3.91919E-1,1.6288673E0,3.9067936E-1,-7.984912E-1,-3.1392643E-1,3.9198205E-1,-3.2422677E-1,-1.4649656E0,1.8978818E-1,-1.1228294E0,-5.3778106E-1,-1.2946763E0,-9.724064E-2,9.889863E-4,-1.0487096E-4,4.2199748E-4,9.158741E-5,1.0484651E-3,-2.8690698E-5,1.1036156E-3,4.5474782E-4,-2.676049E-4,-0E0,-9.258106E-4,-9.759356E-4,1.4264648E-5,4.6321444E-4,-1.4971948E-4],"split_indices":[3,19,19,24,16,34,16,45,2,39,29,32,32,2,0,0,0,0,0,0,0,0,0,0,0,0,0,0,0],"split_type":[0,0,0,0,0,0,0,0,0,0,0,0,0,0,0,0,0,0,0,0,0,0,0,0,0,0,0,0,0],"sum_hessian":[2.12E2,9.9E1,1.13E2,5.3E1,4.6E1,9.7E1,1.6E1,3.5E1,1.8E1,1.1E1,3.5E1,2.9E1,6.8E1,9E0,7E0,1.8E1,1.7E1,5E0,1.3E1,6E0,5E0,4E0,3.1E1,8E0,2.1E1,8E0,6E1,5E0,4E0],"tree_param":{"num_deleted":"0","num_feature":"47","num_nodes":"29","size_leaf_vector":"1"}},{"base_weights":[-2.6210716E-3,-7.3543624E-3,6.201558E-2,4.334203E-2,-1.3942143E-2,8.52857E-2,-2.120919E-5,-7.164966E-5,6.0456865E-2,-1.2798737E-3,-1.1084059E-2,4.0424406E-4,1.1514636E-3,7.894204E-4,-3.6016743E-5,-7.4999174E-5,-9.431435E-4],"categories":[],"categories_nodes":[],"categories_segments":[],"categories_sizes":[],"default_left":[1,0,0,0,1,0,0,0,0,0,1,0,0,0,0,0,0],"id":46,"left_children":[1,3,5,7,9,11,-1,-1,13,-1,15,-1,-1,-1,-1,-1,-1],"loss_changes":[6.958964E-2,7.131217E-2,2.4055291E-2,2.1927774E-2,5.9667658E-2,1.1522189E-2,0E0,0E0,2.2802025E-2,0E0,5.396453E-2,0E0,0E0,0E0,0E0,0E0,0E0],"parents":[2147483647,0,0,1,1,2,2,3,3,4,4,5,5,8,8,10,10],"right_children":[2,4,6,8,10,12,-1,-1,14,-1,16,-1,-1,-1,-1,-1,-1],"split_conditions":[1.6288673E0,-1.0105327E0,8.4561414E-1,-5.646638E-1,-2.2445219E0,-1.1030725E0,-2.120919E-5,-7.164966E-5,5.7191235E-1,-1.2798737E-3,1.7223895E0,4.0424406E-4,1.1514636E-3,7.894204E-4,-3.6016743E-5,-7.4999174E-5,-9.431435E-4],"split_indices":[19,19,33,40,39,0,0,0,44,0,29,0,0,0,0,0,0],"split_type":[0,0,0,0,0,0,0,0,0,0,0,0,0,0,0,0,0],"sum_hessian":[2.28E2,2.13E2,1.5E1,2.4E1,1.89E2,1.1E1,4E0,6E0,1.8E1,4E0,1.85E2,5E0,6E0,1.4E1,4E0,1.78E2,7E0],"tree_param":{"num_deleted":"0","num_feature":"47","num_nodes":"17","size_leaf_vector":"1"}},{"base_weights":[3.334618E-3,7.1874796E-3,-6.5124795E-2,-1.0118717E-3,9.627441E-3,-6.232657E-5,-1.0840854E-3,1.0378663E-3,6.93028E-3,1.0029739E-4,-6.140061E-4],"categories":[],"categories_nodes":[],"categories_segments":[],"categories_sizes":[],"default_left":[0,0,0,0,0,0,0,0,1,0,0],"id":47,"left_children":[1,3,5,-1,7,-1,-1,-1,9,-1,-1],"loss_changes":[5.7023477E-2,5.417628E-2,2.7830083E-2,0E0,4.9960606E-2,0E0,0E0,0E0,4.162249E-2,0E0,0E0],"parents":[2147483647,0,0,1,1,2,2,4,4,8,8],"right_children":[2,4,6,-1,8,-1,-1,-1,10,-1,-1],"split_conditions":[1.3458962E0,-2.2445219E0,-2.651339E-1,-1.0118717E-3,-1.6144147E0,-6.232657E-5,-1.0840854E-3,1.0378663E-3,1.7223895E0,1.0029739E-4,-6.140061E-4],"split_indices":[36,39,16,0,37,0,0,0,29,0,0],"split_type":[0,0,0,0,0,0,0,0,0,0,0],"sum_hessian":[2.17E2,2.06E2,1.1E1,4E0,2.02E2,5E0,6E0,5E0,1.97E2,1.89E2,8E0],"tree_param":{"num_deleted":"0","num_feature":"47","num_nodes":"11","size_leaf_vector":"1"}},{"base_weights":[5.4356386E-3,2.272938E-2,-1.2107465E-2,1.1832509E-2,6.760389E-2,-1.7231861E-2,1.071542E-3,2.0587808E-3,5.841317E-2,9.449126E-2,1.9747257E-2,-4.0842906E-2,9.690158E-3,9.854526E-5,-6.7946286E-4,1.7468212E-4,7.612657E-4,4.1264802E-4,1.329881E-3,3.316313E-4,1.9150195E-5,-8.677532E-4,-2.295438E-4,-1.7450095E-5,7.5176766E-4],"categories":[],"categories_nodes":[],"categories_segments":[],"categories_sizes":[],"default_left":[0,0,0,1,0,0,0,1,0,0,0,0,0,0,0,0,0,0,0,0,0,0,0,0,0],"id":48,"left_children":[1,3,5,7,9,11,-1,13,15,17,19,21,23,-1,-1,-1,-1,-1,-1,-1,-1,-1,-1,-1,-1],"loss_changes":[6.714041E-2,5.332825E-2,6.6944286E-2,4.0536795E-2,2.5589533E-2,6.757123E-2,0E0,4.095737E-2,9.640902E-3,2.3175783E-2,1.6509625E-3,4.433073E-2,3.7868004E-2,0E0,0E0,0E0,0E0,0E0,0E0,0E0,0E0,0E0,0E0,0E0,0E0],"parents":[2147483647,0,0,1,1,2,2,3,3,4,4,5,5,7,7,8,8,9,9,10,10,11,11,12,12],"right_children":[2,4,6,8,10,12,-1,14,16,18,20,22,24,-1,-1,-1,-1,-1,-1,-1,-1,-1,-1,-1,-1],"split_conditions":[1.08173564E-1,-3.5631344E-1,1.2600117E0,4.5878026E-1,4.3262714E-1,1.1563297E-1,1.071542E-3,5.0192827E-1,-1.2652551E0,-3.9480883E-1,4.7665054E-1,5.3678066E-1,1.026948E0,9.854526E-5,-6.7946286E-4,1.7468212E-4,7.612657E-4,4.1264802E-4,1.329881E-3,3.316313E-4,1.9150195E-5,-8.677532E-4,-2.295438E-4,-1.7450095E-5,7.5176766E-4],"split_indices":[8,0,34,31,33,37,0,30,36,21,37,2,21,0,0,0,0,0,0,0,0,0,0,0,0],"split_type":[0,0,0,0,0,0,0,0,0,0,0,0,0,0,0,0,0,0,0,0,0,0,0,0,0],"sum_hessian":[2.2E2,1.11E2,1.09E2,9E1,2.1E1,1.05E2,4E0,7.5E1,1.5E1,1.3E1,8E0,5.6E1,4.9E1,6.8E1,7E0,5E0,1E1,6E0,7E0,4E0,4E0,1.5E1,4.1E1,4.2E1,7E0],"tree_param":{"num_deleted":"0","num_feature":"47","num_nodes":"25","size_leaf_vector":"1"}},{"base_weights":[-2.5643858E-3,1.3338058E-3,-7.015478E-2,-9.6624956E-4,3.950065E-3,1.7998308E-4,-1.1387378E-1,-4.356389E-3,3.4157462E-2,-6.8485655E-4,-1.4438704E-3,8.1399E-5,-2.3458716E-4,5.539514E-4,-1.7494637E-4],"categories":[],"categories_nodes":[],"categories_segments":[],"categories_sizes":[],"default_left":[0,1,0,0,1,0,0,1,0,0,0,0,0,0,0],"id":49,"left_children":[1,3,5,-1,7,-1,9,11,13,-1,-1,-1,-1,-1,-1],"loss_changes":[6.0413286E-2,5.423733E-2,5.0158087E-2,0E0,5.2939393E-2,0E0,4.6990365E-3,3.951617E-2,5.077574E-2,0E0,0E0,0E0,0E0,0E0,0E0],"parents":[2147483647,0,0,1,1,2,2,4,4,6,6,7,7,8,8],"right_children":[2,4,6,-1,8,-1,10,12,14,-1,-1,-1,-1,-1,-1],"split_conditions":[1.3458962E0,-2.2445219E0,-2.9853642E-1,-9.6624956E-4,4.5878026E-1,1.7998308E-4,3.8878288E-2,1.6417171E-1,3.7126935E-1,-6.8485655E-4,-1.4438704E-3,8.1399E-5,-2.3458716E-4,5.539514E-4,-1.7494637E-4],"split_indices":[36,39,38,0,31,0,3,35,43,0,0,0,0,0,0],"split_type":[0,0,0,0,0,0,0,0,0,0,0,0,0,0,0],"sum_hessian":[2.26E2,2.14E2,1.2E1,5E0,2.09E2,4E0,8E0,1.64E2,4.5E1,4E0,4E0,9.9E1,6.5E1,3.2E1,1.3E1],"tree_param":{"num_deleted":"0","num_feature":"47","num_nodes":"15","size_leaf_vector":"1"}},{"base_weights":[-3.751483E-4,3.5778474E-2,-6.6348296E-3,2.2909094E-2,1.0822708E-3,-1.4104075E-3,-9.1693856E-2,8.698478E-3,7.71426E-4,2.7098207E-2,-9.310538E-3,-1.4566568E-5,-1.4557393E-3,3.4720657E-4,-2.174214E-4,1.0358545E-4,7.483834E-4,9.042842E-6,-5.2106107E-4],"categories":[],"categories_nodes":[],"categories_segments":[],"categories_sizes":[],"default_left":[0,0,1,0,0,0,0,0,0,0,0,0,0,0,0,0,0,0,0],"id":50,"left_children":[1,3,5,7,-1,9,11,13,-1,15,17,-1,-1,-1,-1,-1,-1,-1,-1],"loss_changes":[4.837078E-2,2.6818559E-2,8.054881E-2,2.0000095E-2,0E0,3.9024256E-2,4.947453E-2,1.8330188E-2,0E0,2.8728688E-2,6.0206443E-2,0E0,0E0,0E0,0E0,0E0,0E0,0E0,0E0],"parents":[2147483647,0,0,1,1,2,2,3,3,5,5,6,6,7,7,9,9,10,10],"right_children":[2,4,6,8,-1,10,12,14,-1,16,18,-1,-1,-1,-1,-1,-1,-1,-1],"split_conditions":[-1.0844728E0,8.246493E-1,1.4335493E0,7.097807E-1,1.0822708E-3,-5.1912385E-1,-8.3195835E-2,-1.3496795E-1,7.71426E-4,4.4095594E-1,1.583438E0,-1.4566568E-5,-1.4557393E-3,3.4720657E-4,-2.174214E-4,1.0358545E-4,7.483834E-4,9.042842E-6,-5.2106107E-4],"split_indices":[22,40,40,12,0,35,4,12,0,16,24,0,0,0,0,0,0,0,0],"split_type":[0,0,0,0,0,0,0,0,0,0,0,0,0,0,0,0,0,0,0],"sum_hessian":[2.14E2,3.1E1,1.83E2,2.7E1,4E0,1.73E2,1E1,2.2E1,5E0,3.7E1,1.36E2,4E0,6E0,1.2E1,1E1,2.8E1,9E0,1.1E2,2.6E1],"tree_param":{"num_deleted":"0","num_feature":"47","num_nodes":"19","size_leaf_vector":"1"}},{"base_weights":[4.9002264E-3,-4.2043066E-5,7.218766E-2,-1.2555149E-3,2.6577795E-3,4.0409487E-4,9.480443E-2,7.784437E-2,-9.330677E-4,1.1572228E-3,6.1130524E-4,2.972086E-4,1.2579039E-3,2.4982262E-5,-6.9659494E-4],"categories":[],"categories_nodes":[],"categories_segments":[],"categories_sizes":[],"default_left":[1,0,0,0,0,0,0,0,1,0,0,0,0,0,0],"id":51,"left_children":[1,3,5,-1,7,-1,9,11,13,-1,-1,-1,-1,-1,-1],"loss_changes":[7.538105E-2,7.238554E-2,7.872514E-3,0E0,5.6287054E-2,0E0,6.8166107E-4,1.8495236E-2,4.709737E-2,0E0,0E0,0E0,0E0,0E0,0E0],"parents":[2147483647,0,0,1,1,2,2,4,4,6,6,7,7,8,8],"right_children":[2,4,6,-1,8,-1,10,12,14,-1,-1,-1,-1,-1,-1],"split_conditions":[1.552622E0,-1.8772292E0,2.4785979E-1,-1.2555149E-3,-1.1977214E0,4.0409487E-4,1.5840554E-1,-1.1665334E-1,1.6987327E0,1.1572228E-3,6.1130524E-4,2.972086E-4,1.2579039E-3,2.4982262E-5,-6.9659494E-4],"split_indices":[19,38,16,0,19,0,30,16,29,0,0,0,0,0,0],"split_type":[0,0,0,0,0,0,0,0,0,0,0,0,0,0,0],"sum_hessian":[2.24E2,2.09E2,1.5E1,4E0,2.05E2,7E0,8E0,9E0,1.96E2,4E0,4E0,5E0,4E0,1.87E2,9E0],"tree_param":{"num_deleted":"0","num_feature":"47","num_nodes":"15","size_leaf_vector":"1"}},{"base_weights":[7.5012434E-4,-7.6605813E-3,3.303325E-2,-1.2542143E-3,-4.4525927E-3,-1.2660911E-2,6.0862422E-2,9.459351E-4,-6.761135E-2,1.7360764E-4,-3.4454446E-2,4.2369686E-2,1.5256038E-3,-7.907737E-5,3.9534757E-4,-2.1420898E-4,-1.1416869E-3,-6.05907E-4,-1.2171313E-4,5.793585E-4,-1.4853042E-4],"categories":[],"categories_nodes":[],"categories_segments":[],"categories_sizes":[],"default_left":[1,1,0,0,1,0,0,1,0,0,0,0,0,0,0,0,0,0,0,0,0],"id":52,"left_children":[1,3,5,-1,7,9,11,13,15,-1,17,19,-1,-1,-1,-1,-1,-1,-1,-1,-1],"loss_changes":[5.9708226E-2,6.396608E-2,5.872649E-2,0E0,5.8492083E-2,1.1919887E-2,4.314749E-2,5.3941246E-2,2.6453119E-2,0E0,5.018819E-3,2.2684183E-2,0E0,0E0,0E0,0E0,0E0,0E0,0E0,0E0,0E0],"parents":[2147483647,0,0,1,1,2,2,4,4,5,5,6,6,7,7,8,8,10,10,11,11],"right_children":[2,4,6,-1,8,10,12,14,16,-1,18,20,-1,-1,-1,-1,-1,-1,-1,-1,-1],"split_conditions":[3.9489505E-1,-2.228256E0,-6.233761E-1,-1.2542143E-3,8.967387E-1,7.614103E-1,1.5238869E0,4.7054273E-1,4.4020438E-1,1.7360764E-4,3.8862936E0,1.5306804E0,1.5256038E-3,-7.907737E-5,3.9534757E-4,-2.1420898E-4,-1.1416869E-3,-6.05907E-4,-1.2171313E-4,5.793585E-4,-1.4853042E-4],"split_indices":[42,39,31,0,40,42,20,31,29,0,43,5,0,0,0,0,0,0,0,0,0],"split_type":[0,0,0,0,0,0,0,0,0,0,0,0,0,0,0,0,0,0,0,0,0],"sum_hessian":[2.18E2,1.73E2,4.5E1,4E0,1.69E2,1.7E1,2.8E1,1.56E2,1.3E1,7E0,1E1,2.4E1,4E0,1.27E2,2.9E1,7E0,6E0,4E0,6E0,1.9E1,5E0],"tree_param":{"num_deleted":"0","num_feature":"47","num_nodes":"21","size_leaf_vector":"1"}},{"base_weights":[-1.5738152E-3,2.2958445E-3,-7.966018E-2,-9.964417E-3,2.830976E-2,-2.7210193E-4,-1.4434792E-3,6.724515E-2,-1.4881139E-2,-8.6051197E-4,3.634865E-2,3.8549572E-4,8.6246827E-4,-5.6313013E-4,-7.310886E-5,2.1161186E-4,8.205301E-4],"categories":[],"categories_nodes":[],"categories_segments":[],"categories_sizes":[],"default_left":[1,1,0,0,0,0,0,0,0,0,0,0,0,0,0,0,0],"id":53,"left_children":[1,3,5,7,9,-1,-1,11,13,-1,15,-1,-1,-1,-1,-1,-1],"loss_changes":[6.7190886E-2,6.714188E-2,3.1945698E-2,5.4072265E-2,6.3122004E-2,0E0,0E0,1.7243922E-3,4.1343797E-2,0E0,4.2177156E-2,0E0,0E0,0E0,0E0,0E0,0E0],"parents":[2147483647,0,0,1,1,2,2,3,3,4,4,7,7,8,8,10,10],"right_children":[2,4,6,8,10,-1,-1,12,14,-1,16,-1,-1,-1,-1,-1,-1],"split_conditions":[1.6935875E0,3.01882E-1,2.1477549E-1,-1.1973665E0,-1.2168747E0,-2.7210193E-4,-1.4434792E-3,-2.288289E-1,-8.32455E-1,-8.6051197E-4,1.1321551E0,3.8549572E-4,8.6246827E-4,-5.6313013E-4,-7.310886E-5,2.1161186E-4,8.205301E-4],"split_indices":[29,32,1,19,34,0,0,12,46,0,12,0,0,0,0,0,0],"split_type":[0,0,0,0,0,0,0,0,0,0,0,0,0,0,0,0,0],"sum_hessian":[2.19E2,2.09E2,1E1,1.42E2,6.7E1,6E0,4E0,8E0,1.34E2,4E0,6.3E1,4E0,4E0,2E1,1.14E2,4.8E1,1.5E1],"tree_param":{"num_deleted":"0","num_feature":"47","num_nodes":"17","size_leaf_vector":"1"}},{"base_weights":[-7.563461E-4,2.9101183E-3,-6.9024086E-2,-2.4998084E-2,1.2149777E-2,8.442067E-5,-1.1223551E-3,-1.07122265E-1,-6.5456987E-3,2.6311435E-2,-1.2354209E-2,-1.9025729E-3,-2.7546127E-4,4.2084823E-5,-6.9624E-4,1.2199129E-4,7.807352E-4,2.3454874E-4,-3.152068E-4],"categories":[],"categories_nodes":[],"categories_segments":[],"categories_sizes":[],"default_left":[0,1,0,0,0,0,0,0,0,0,0,0,0,0,0,0,0,0,0],"id":54,"left_children":[1,3,5,7,9,-1,-1,11,13,15,17,-1,-1,-1,-1,-1,-1,-1,-1],"loss_changes":[5.64536E-2,5.4561242E-2,4.000705E-2,7.807055E-2,5.565133E-2,0E0,0E0,5.8049396E-2,3.030912E-2,7.276504E-2,4.060084E-2,0E0,0E0,0E0,0E0,0E0,0E0,0E0,0E0],"parents":[2147483647,0,0,1,1,2,2,3,3,4,4,7,7,8,8,9,9,10,10],"right_children":[2,4,6,8,10,-1,-1,12,14,16,18,-1,-1,-1,-1,-1,-1,-1,-1],"split_conditions":[1.3944663E0,-4.763278E-1,-7.5292635E-1,-8.6557287E-1,2.81442E-1,8.442067E-5,-1.1223551E-3,-1.6095164E-1,8.268875E-1,1.0009061E0,9.803792E-2,-1.9025729E-3,-2.7546127E-4,4.2084823E-5,-6.9624E-4,1.2199129E-4,7.807352E-4,2.3454874E-4,-3.152068E-4],"split_indices":[36,39,27,46,35,0,0,19,8,21,38,0,0,0,0,0,0,0,0],"split_type":[0,0,0,0,0,0,0,0,0,0,0,0,0,0,0,0,0,0,0],"sum_hessian":[2.22E2,2.11E2,1.1E1,5.2E1,1.59E2,4E0,7E0,9E0,4.3E1,1.01E2,5.8E1,4E0,5E0,3.7E1,6E0,8E1,2.1E1,2E1,3.8E1],"tree_param":{"num_deleted":"0","num_feature":"47","num_nodes":"19","size_leaf_vector":"1"}},{"base_weights":[1.3420667E-3,1.9487351E-2,-1.4075332E-2,1.4044874E-2,1.3060133E-3,-2.9161777E-2,2.3439769E-2,6.1427344E-2,5.406E-3,-1.4483059E-3,-2.2305293E-2,-0E0,7.437713E-2,8.1310846E-4,5.9850223E-5,4.6205684E-4,-5.5505494E-5,-1.3876027E-4,-8.263272E-4,-2.1984315E-4,4.8935146E-4,1.1310773E-3,2.706678E-4],"categories":[],"categories_nodes":[],"categories_segments":[],"categories_sizes":[],"default_left":[0,0,0,0,0,0,0,0,0,0,0,0,0,0,0,0,0,0,0,0,0,0,0],"id":55,"left_children":[1,3,5,7,-1,9,11,13,15,-1,17,19,21,-1,-1,-1,-1,-1,-1,-1,-1,-1,-1],"loss_changes":[6.0478058E-2,5.7807576E-2,6.633444E-2,3.8256757E-2,0E0,6.293571E-2,3.9679885E-2,1.4868341E-2,3.696722E-2,0E0,3.8888626E-2,2.5934482E-2,1.6307283E-2,0E0,0E0,0E0,0E0,0E0,0E0,0E0,0E0,0E0,0E0],"parents":[2147483647,0,0,1,1,2,2,3,3,5,5,6,6,7,7,8,8,10,10,11,11,12,12],"right_children":[2,4,6,8,-1,10,12,14,16,-1,18,20,22,-1,-1,-1,-1,-1,-1,-1,-1,-1,-1],"split_conditions":[-2.5557652E-1,-5.621996E-2,4.7475147E-1,-1.0844728E0,1.3060133E-3,-9.780236E-1,4.5817372E-1,1.020019E0,-5.1445794E-1,-1.4483059E-3,1.2485602E0,8.948001E-1,1.422367E0,8.1310846E-4,5.9850223E-5,4.6205684E-4,-5.5505494E-5,-1.3876027E-4,-8.263272E-4,-2.1984315E-4,4.8935146E-4,1.1310773E-3,2.706678E-4],"split_indices":[3,4,42,22,0,18,18,17,28,0,35,39,30,0,0,0,0,0,0,0,0,0,0],"split_type":[0,0,0,0,0,0,0,0,0,0,0,0,0,0,0,0,0,0,0,0,0,0,0],"sum_hessian":[2.15E2,9.9E1,1.16E2,9.5E1,4E0,8.3E1,3.3E1,1.4E1,8.1E1,4E0,7.9E1,2.3E1,1E1,1E1,4E0,1.7E1,6.4E1,7E1,9E0,1.6E1,7E0,5E0,5E0],"tree_param":{"num_deleted":"0","num_feature":"47","num_nodes":"23","size_leaf_vector":"1"}},{"base_weights":[-1.7473373E-3,-1.0618115E-3,5.978324E-4,1.6887221E-2,-1.9676305E-2,7.858055E-3,6.35589E-2,-1.4425094E-2,-1.1270695E-3,2.4402783E-4,-1.5404717E-4,9.1374665E-4,2.7555454E-4,-2.163497E-4,4.9287634E-4],"categories":[],"categories_nodes":[],"categories_segments":[],"categories_sizes":[],"default_left":[0,0,0,0,0,0,0,0,0,0,0,0,0,0,0],"id":56,"left_children":[1,-1,3,5,7,9,11,13,-1,-1,-1,-1,-1,-1,-1],"loss_changes":[5.0193034E-2,0E0,6.503302E-2,4.51801E-2,4.066158E-2,3.5878994E-2,1.5077375E-2,3.861327E-2,0E0,0E0,0E0,0E0,0E0,0E0,0E0],"parents":[2147483647,0,0,2,2,3,3,4,4,5,5,6,6,7,7],"right_children":[2,-1,4,6,8,10,12,14,-1,-1,-1,-1,-1,-1,-1],"split_conditions":[-1.9587463E0,-1.0618115E-3,1.6417171E-1,6.8806344E-1,1.8325809E0,1.9145197E-1,-2.1119106E-1,1.5487651E0,-1.1270695E-3,2.4402783E-4,-1.5404717E-4,9.1374665E-4,2.7555454E-4,-2.163497E-4,4.9287634E-4],"split_indices":[35,0,35,21,34,41,13,19,0,0,0,0,0,0,0],"split_type":[0,0,0,0,0,0,0,0,0,0,0,0,0,0,0],"sum_hessian":[2E2,4E0,1.96E2,1.09E2,8.7E1,9.2E1,1.7E1,8.3E1,4E0,5.4E1,3.8E1,9E0,8E0,7.5E1,8E0],"tree_param":{"num_deleted":"0","num_feature":"47","num_nodes":"15","size_leaf_vector":"1"}},{"base_weights":[-4.4211554E-3,7.038966E-2,-8.13686E-3,1.071074E-3,7.309618E-5,-1.6080946E-2,2.574875E-2,-1.1327128E-2,-1.358077E-3,9.4494615E-3,1.5287091E-3,-5.8215464E-5,-7.3175185E-4,8.272861E-4,-5.994447E-5],"categories":[],"categories_nodes":[],"categories_segments":[],"categories_sizes":[],"default_left":[0,0,1,0,0,1,0,1,0,0,0,0,0,0,0],"id":57,"left_children":[1,3,5,-1,-1,7,9,11,-1,13,-1,-1,-1,-1,-1],"loss_changes":[6.1791245E-2,2.278402E-2,5.7582464E-2,0E0,0E0,9.650861E-2,8.157055E-2,5.6032386E-2,0E0,4.232295E-2,0E0,0E0,0E0,0E0,0E0],"parents":[2147483647,0,0,1,1,2,2,5,5,6,6,7,7,9,9],"right_children":[2,4,6,-1,-1,8,10,12,-1,14,-1,-1,-1,-1,-1],"split_conditions":[-1.1973665E0,4.373475E-1,4.7475147E-1,1.071074E-3,7.309618E-5,1.4335493E0,1.9299732E0,1.1969776E0,-1.358077E-3,-1.1992255E0,1.5287091E-3,-5.8215464E-5,-7.3175185E-4,8.272861E-4,-5.994447E-5],"split_indices":[19,37,42,0,0,40,12,32,0,23,0,0,0,0,0],"split_type":[0,0,0,0,0,0,0,0,0,0,0,0,0,0,0],"sum_hessian":[2.23E2,1E1,2.13E2,6E0,4E0,1.73E2,4E1,1.67E2,6E0,3.6E1,4E0,1.54E2,1.3E1,6E0,3E1],"tree_param":{"num_deleted":"0","num_feature":"47","num_nodes":"15","size_leaf_vector":"1"}},{"base_weights":[2.3715068E-3,7.347976E-3,-9.1815904E-2,-5.2934937E-2,1.3131502E-2,-1.2650396E-3,-2.9286928E-4,6.1309856E-4,-1.10845394E-1,-8.341652E-4,1.612561E-2,-2.2495832E-4,3.1011447E-4,-1.8384681E-3,-2.3305595E-4,2.1155326E-4,-3.6804794E-4],"categories":[],"categories_nodes":[],"categories_segments":[],"categories_sizes":[],"default_left":[0,0,0,0,0,0,0,0,0,0,0,0,0,0,0,0,0],"id":58,"left_children":[1,3,5,7,9,-1,-1,11,13,-1,15,-1,-1,-1,-1,-1,-1],"loss_changes":[9.815836E-2,6.985341E-2,1.936423E-2,5.540365E-2,5.304497E-2,0E0,0E0,7.107467E-3,5.0105646E-2,0E0,4.7753956E-2,0E0,0E0,0E0,0E0,0E0,0E0],"parents":[2147483647,0,0,1,1,2,2,3,3,4,4,7,7,8,8,10,10],"right_children":[2,4,6,8,10,-1,-1,12,14,-1,16,-1,-1,-1,-1,-1,-1],"split_conditions":[1.3458962E0,-1.0717431E0,1.273807E0,-7.8888905E-1,-1.4044262E0,-1.2650396E-3,-2.9286928E-4,-3.1519246E-1,1.2709576E-1,-8.341652E-4,1.6664984E0,-2.2495832E-4,3.1011447E-4,-1.8384681E-3,-2.3305595E-4,2.1155326E-4,-3.6804794E-4],"split_indices":[36,39,2,21,46,0,0,44,37,0,29,0,0,0,0,0,0],"split_type":[0,0,0,0,0,0,0,0,0,0,0,0,0,0,0,0,0],"sum_hessian":[2.1E2,2E2,1E1,1.7E1,1.83E2,6E0,4E0,9E0,8E0,5E0,1.78E2,5E0,4E0,4E0,4E0,1.63E2,1.5E1],"tree_param":{"num_deleted":"0","num_feature":"47","num_nodes":"17","size_leaf_vector":"1"}},{"base_weights":[-9.865712E-4,2.5737647E-3,-7.5302705E-2,-8.8626234E-4,1.1596589E-3,-2.971072E-6,-1.1989868E-3,-9.861037E-4,1.1970383E-3,4.7655612E-5,-5.8650336E-4],"categories":[],"categories_nodes":[],"categories_segments":[],"categories_sizes":[],"default_left":[1,0,0,0,0,0,0,0,1,0,0],"id":59,"left_children":[1,3,5,7,-1,-1,-1,-1,9,-1,-1],"loss_changes":[6.0753923E-2,8.614374E-2,3.3902176E-2,4.388857E-2,0E0,0E0,0E0,0E0,4.370244E-2,0E0,0E0],"parents":[2147483647,0,0,1,1,2,2,3,3,8,8],"right_children":[2,4,6,8,-1,-1,-1,-1,10,-1,-1],"split_conditions":[1.570237E0,1.9769037E0,-1.8322858E-1,-2.2445219E0,1.1596589E-3,-2.971072E-6,-1.1989868E-3,-9.861037E-4,1.8860645E0,4.7655612E-5,-5.8650336E-4],"split_indices":[40,12,3,39,0,0,0,0,22,0,0],"split_type":[0,0,0,0,0,0,0,0,0,0,0],"sum_hessian":[2.26E2,2.16E2,1E1,2.1E2,6E0,4E0,6E0,4E0,2.06E2,1.95E2,1.1E1],"tree_param":{"num_deleted":"0","num_feature":"47","num_nodes":"11","size_leaf_vector":"1"}},{"base_weights":[2.3042068E-3,7.001816E-3,-6.431E-2,7.606165E-4,8.935844E-2,-0E0,-1.1055895E-1,3.2862388E-2,-6.617764E-3,1.2587582E-1,3.3192773E-4,-6.556096E-4,-1.4105038E-3,6.3629035E-4,9.452416E-5,-7.4965967E-4,1.847734E-5,6.4637704E-4,1.7090549E-3],"categories":[],"categories_nodes":[],"categories_segments":[],"categories_sizes":[],"default_left":[1,0,0,0,0,0,0,0,0,0,0,0,0,0,0,0,0,0,0],"id":60,"left_children":[1,3,5,7,9,-1,11,13,15,17,-1,-1,-1,-1,-1,-1,-1,-1,-1],"loss_changes":[6.89655E-2,1.05720684E-1,4.3929137E-2,4.620341E-2,2.606006E-2,0E0,4.9726516E-3,2.5257453E-2,9.193019E-2,1.556012E-2,0E0,0E0,0E0,0E0,0E0,0E0,0E0,0E0,0E0],"parents":[2147483647,0,0,1,1,2,2,3,3,4,4,6,6,7,7,8,8,9,9],"right_children":[2,4,6,8,10,-1,12,14,16,18,-1,-1,-1,-1,-1,-1,-1,-1,-1],"split_conditions":[1.6935875E0,1.3668075E0,-2.1647975E-1,-1.0078725E0,4.0885872E-1,-0E0,6.431208E-1,-8.680007E-2,-5.662832E-1,-2.328462E-1,3.3192773E-4,-6.556096E-4,-1.4105038E-3,6.3629035E-4,9.452416E-5,-7.4965967E-4,1.847734E-5,6.4637704E-4,1.7090549E-3],"split_indices":[29,12,40,7,41,0,0,41,11,40,0,0,0,0,0,0,0,0,0],"split_type":[0,0,0,0,0,0,0,0,0,0,0,0,0,0,0,0,0,0,0],"sum_hessian":[2.21E2,2.07E2,1.4E1,1.93E2,1.4E1,6E0,8E0,3.6E1,1.57E2,8E0,6E0,4E0,4E0,1.5E1,2.1E1,1.7E1,1.4E2,4E0,4E0],"tree_param":{"num_deleted":"0","num_feature":"47","num_nodes":"19","size_leaf_vector":"1"}},{"base_weights":[-2.2156867E-3,-1.312509E-3,4.010927E-4,8.311263E-3,-4.3107484E-2,-5.5965055E-2,1.1804008E-2,8.394418E-3,-6.891718E-2,-1.1024604E-3,-4.647416E-5,1.4914287E-4,-6.915054E-4,-2.3393426E-4,3.618456E-4,-2.8554216E-4,-9.402751E-4],"categories":[],"categories_nodes":[],"categories_segments":[],"categories_sizes":[],"default_left":[0,0,0,0,0,0,0,0,0,0,0,0,0,0,0,0,0],"id":61,"left_children":[1,-1,3,5,7,9,11,13,15,-1,-1,-1,-1,-1,-1,-1,-1],"loss_changes":[7.646342E-2,0E0,7.50302E-2,4.1533586E-2,4.5424305E-2,2.5057828E-2,4.441445E-2,1.0710122E-2,2.0236112E-2,0E0,0E0,0E0,0E0,0E0,0E0,0E0,0E0],"parents":[2147483647,0,0,2,2,3,3,4,4,5,5,6,6,7,7,8,8],"right_children":[2,-1,4,6,8,10,12,14,16,-1,-1,-1,-1,-1,-1,-1,-1],"split_conditions":[-1.0225888E0,-1.312509E-3,1.1064526E0,-1.3462731E0,-1.1160636E0,3.5505322E-1,2.168306E0,-2.8874636E-1,-1.5141171E-1,-1.1024604E-3,-4.647416E-5,1.4914287E-4,-6.915054E-4,-2.3393426E-4,3.618456E-4,-2.8554216E-4,-9.402751E-4],"split_indices":[26,0,36,46,20,2,17,28,14,0,0,0,0,0,0,0,0],"split_type":[0,0,0,0,0,0,0,0,0,0,0,0,0,0,0,0,0],"sum_hessian":[2.22E2,4E0,2.18E2,1.85E2,3.3E1,9E0,1.76E2,1.1E1,2.2E1,4E0,5E0,1.7E2,6E0,5E0,6E0,9E0,1.3E1],"tree_param":{"num_deleted":"0","num_feature":"47","num_nodes":"17","size_leaf_vector":"1"}},{"base_weights":[-2.9424694E-3,2.7223007E-4,-9.2162396E-4,3.8379838E-3,-5.917779E-2,3.1663355E-4,1.2299742E-3,-1.326561E-4,-8.144658E-4,1.9641018E-4,-1.6435744E-4],"categories":[],"categories_nodes":[],"categories_segments":[],"categories_sizes":[],"default_left":[1,1,0,0,0,0,0,0,0,0,0],"id":62,"left_children":[1,3,-1,5,7,9,-1,-1,-1,-1,-1],"loss_changes":[6.18797E-2,4.3122906E-2,0E0,8.0359995E-2,1.0270353E-2,6.1540186E-2,0E0,0E0,0E0,0E0,0E0],"parents":[2147483647,0,0,1,1,3,3,4,4,5,5],"right_children":[2,4,-1,6,8,10,-1,-1,-1,-1,-1],"split_conditions":[1.570237E0,1.6987327E0,-9.2162396E-4,1.7520478E0,-4.6476164E-1,3.8122095E-2,1.2299742E-3,-1.326561E-4,-8.144658E-4,1.9641018E-4,-1.6435744E-4],"split_indices":[40,29,0,20,35,35,0,0,0,0,0],"split_type":[0,0,0,0,0,0,0,0,0,0,0],"sum_hessian":[2.12E2,2.05E2,7E0,1.94E2,1.1E1,1.89E2,5E0,4E0,7E0,8.8E1,1.01E2],"tree_param":{"num_deleted":"0","num_feature":"47","num_nodes":"11","size_leaf_vector":"1"}},{"base_weights":[-1.6167117E-3,6.225743E-4,-1.1039859E-3,3.4256936E-3,-8.78023E-4,7.1370794E-4,1.0163955E-3,4.3856658E-4,-3.79385E-5],"categories":[],"categories_nodes":[],"categories_segments":[],"categories_sizes":[],"default_left":[1,0,0,0,0,0,0,0,0],"id":63,"left_children":[1,3,-1,5,-1,7,-1,-1,-1],"loss_changes":[5.4357365E-2,5.2473765E-2,0E0,5.4475125E-2,0E0,4.005833E-2,0E0,0E0,0E0],"parents":[2147483647,0,0,1,1,3,3,5,5],"right_children":[2,4,-1,6,-1,8,-1,-1,-1],"split_conditions":[1.7285105E0,2.2375808E0,-1.1039859E-3,1.9299732E0,-8.78023E-4,-1.1282775E0,1.0163955E-3,4.3856658E-4,-3.79385E-5],"split_indices":[34,3,0,12,0,22,0,0,0],"split_type":[0,0,0,0,0,0,0,0,0],"sum_hessian":[2.18E2,2.14E2,4E0,2.08E2,6E0,2.03E2,5E0,1.9E1,1.84E2],"tree_param":{"num_deleted":"0","num_feature":"47","num_nodes":"9","size_leaf_vector":"1"}},{"base_weights":[-6.591037E-4,4.8205727E-3,-6.493251E-2,1.9720498E-2,-1.341606E-2,-1.3693727E-3,-3.778527E-2,1.264118E-2,8.693667E-2,-3.4353595E-2,1.089255E-2,-1.5012183E-2,-7.944119E-4,6.2556035E-4,7.395066E-5,1.1460683E-3,3.5086795E-4,7.690782E-5,-7.4467727E-4,-1.9336498E-5,8.3617173E-4,-3.3002187E-4,6.4213964E-5],"categories":[],"categories_nodes":[],"categories_segments":[],"categories_sizes":[],"default_left":[0,0,0,0,1,0,0,0,0,1,0,0,0,0,0,0,0,0,0,0,0,0,0],"id":64,"left_children":[1,3,5,7,9,-1,11,13,15,17,19,21,-1,-1,-1,-1,-1,-1,-1,-1,-1,-1,-1],"loss_changes":[7.841716E-2,5.549126E-2,2.987346E-2,5.1987246E-2,4.699176E-2,0E0,1.1265734E-2,2.5909739E-2,1.15567595E-2,8.443952E-2,4.054085E-2,4.0348745E-3,0E0,0E0,0E0,0E0,0E0,0E0,0E0,0E0,0E0,0E0,0E0],"parents":[2147483647,0,0,1,1,2,2,3,3,4,4,6,6,7,7,8,8,9,9,10,10,11,11],"right_children":[2,4,6,8,10,-1,12,14,16,18,20,22,-1,-1,-1,-1,-1,-1,-1,-1,-1,-1,-1],"split_conditions":[9.484445E-1,1.6417171E-1,-5.405394E-1,1.2260159E0,2.2014527E-1,-1.3693727E-3,9.915931E-1,-1.1973665E0,8.940216E-1,-3.825599E-1,1.3011348E0,-1.961776E-1,-7.944119E-4,6.2556035E-4,7.395066E-5,1.1460683E-3,3.5086795E-4,7.690782E-5,-7.4467727E-4,-1.9336498E-5,8.3617173E-4,-3.3002187E-4,6.4213964E-5],"split_indices":[11,35,44,12,37,0,0,19,29,37,3,43,0,0,0,0,0,0,0,0,0,0,0],"split_type":[0,0,0,0,0,0,0,0,0,0,0,0,0,0,0,0,0,0,0,0,0,0,0],"sum_hessian":[2.2E2,2.03E2,1.7E1,1.12E2,9.1E1,4E0,1.3E1,1.02E2,1E1,4.9E1,4.2E1,9E0,4E0,9E0,9.3E1,6E0,4E0,2.4E1,2.5E1,3.6E1,6E0,5E0,4E0],"tree_param":{"num_deleted":"0","num_feature":"47","num_nodes":"23","size_leaf_vector":"1"}},{"base_weights":[2.1032642E-3,8.46664E-2,-1.2197015E-3,3.6467033E-4,1.2123617E-3,-1.6001249E-2,2.1331519E-2,3.2393046E-2,-2.7588172E-2,8.903972E-3,6.0740925E-2,9.41183E-4,1.3639947E-4,-3.866319E-4,2.0030185E-4,1.5897091E-4,-5.21047E-4,1.2071885E-3,1.289894E-4],"categories":[],"categories_nodes":[],"categories_segments":[],"categories_sizes":[],"default_left":[0,0,1,0,0,0,0,0,1,0,0,0,0,0,0,0,0,0,0],"id":65,"left_children":[1,3,5,-1,-1,7,9,11,13,15,17,-1,-1,-1,-1,-1,-1,-1,-1],"loss_changes":[6.0283847E-2,1.1194836E-2,6.961915E-2,0E0,0E0,7.1332514E-2,3.943852E-2,2.6640264E-2,5.46294E-2,2.7143778E-2,5.383978E-2,0E0,0E0,0E0,0E0,0E0,0E0,0E0,0E0],"parents":[2147483647,0,0,1,1,2,2,5,5,6,6,7,7,8,8,9,9,10,10],"right_children":[2,4,6,-1,-1,8,10,12,14,16,18,-1,-1,-1,-1,-1,-1,-1,-1],"split_conditions":[-1.1973665E0,6.20482E-2,2.096812E-1,3.6467033E-4,1.2123617E-3,-6.6973186E-1,5.244039E-1,-7.668373E-1,5.6777835E-1,1.2262987E0,7.571536E-1,9.41183E-4,1.3639947E-4,-3.866319E-4,2.0030185E-4,1.5897091E-4,-5.21047E-4,1.2071885E-3,1.289894E-4],"split_indices":[19,28,17,0,0,28,42,4,16,35,42,0,0,0,0,0,0,0,0],"split_type":[0,0,0,0,0,0,0,0,0,0,0,0,0,0,0,0,0,0,0],"sum_hessian":[2.16E2,8E0,2.08E2,4E0,4E0,1.26E2,8.2E1,2.4E1,1.02E2,6.3E1,1.9E1,5E0,1.9E1,8.3E1,1.9E1,5.7E1,6E0,8E0,1.1E1],"tree_param":{"num_deleted":"0","num_feature":"47","num_nodes":"19","size_leaf_vector":"1"}},{"base_weights":[-2.0128023E-3,1.2786586E-3,-7.6930754E-2,-2.307744E-3,1.0127237E-3,-0E0,-1.3150439E-3,-9.7035867E-4,-1.4759364E-4,-6.428431E-5,3.2497224E-4],"categories":[],"categories_nodes":[],"categories_segments":[],"categories_sizes":[],"default_left":[1,0,0,0,0,0,0,0,1,0,0],"id":66,"left_children":[1,3,5,7,-1,-1,-1,-1,9,-1,-1],"loss_changes":[5.567187E-2,7.767138E-2,3.888949E-2,4.127648E-2,0E0,0E0,0E0,0E0,4.1363716E-2,0E0,0E0],"parents":[2147483647,0,0,1,1,2,2,3,3,8,8],"right_children":[2,4,6,8,-1,-1,-1,-1,10,-1,-1],"split_conditions":[1.4335493E0,1.9769037E0,-8.3195835E-2,-2.2445219E0,1.0127237E-3,-0E0,-1.3150439E-3,-9.7035867E-4,5.2920675E-1,-6.428431E-5,3.2497224E-4],"split_indices":[40,12,4,39,0,0,0,0,31,0,0],"split_type":[0,0,0,0,0,0,0,0,0,0,0],"sum_hessian":[2.22E2,2.13E2,9E0,2.06E2,7E0,4E0,5E0,4E0,2.02E2,1.7E2,3.2E1],"tree_param":{"num_deleted":"0","num_feature":"47","num_nodes":"11","size_leaf_vector":"1"}},{"base_weights":[-3.8559884E-3,4.5901947E-4,-7.2055705E-2,-6.95761E-3,3.210649E-2,-2.961892E-4,-1.1394002E-3,8.5580203E-4,-1.0631429E-2,8.020993E-4,6.528552E-2,-5.1397906E-4,-4.782436E-5,6.3106715E-4,-1.938435E-4,7.3912615E-6,1.0060193E-3],"categories":[],"categories_nodes":[],"categories_segments":[],"categories_sizes":[],"default_left":[0,1,0,0,0,0,0,0,0,0,0,0,0,0,0,0,0],"id":67,"left_children":[1,3,5,7,9,-1,-1,-1,11,13,15,-1,-1,-1,-1,-1,-1],"loss_changes":[6.679889E-2,5.0005943E-2,2.0872407E-2,5.80098E-2,4.137824E-2,0E0,0E0,0E0,3.8777582E-2,2.8089609E-2,4.3400586E-2,0E0,0E0,0E0,0E0,0E0,0E0],"parents":[2147483647,0,0,1,1,2,2,3,3,4,4,8,8,9,9,10,10],"right_children":[2,4,6,8,10,-1,-1,-1,12,14,16,-1,-1,-1,-1,-1,-1],"split_conditions":[1.3458962E0,4.211785E-1,-7.1387255E-1,-1.1973665E0,2.0524344E-1,-2.961892E-4,-1.1394002E-3,8.5580203E-4,-8.773487E-1,-2.3885006E-1,-6.233761E-1,-5.1397906E-4,-4.782436E-5,6.3106715E-4,-1.938435E-4,7.3912615E-6,1.0060193E-3],"split_indices":[36,42,27,19,40,0,0,0,41,46,31,0,0,0,0,0,0],"split_type":[0,0,0,0,0,0,0,0,0,0,0,0,0,0,0,0,0],"sum_hessian":[2.24E2,2.11E2,1.3E1,1.71E2,4E1,7E0,6E0,6E0,1.65E2,2.1E1,1.9E1,2E1,1.45E2,5E0,1.6E1,7E0,1.2E1],"tree_param":{"num_deleted":"0","num_feature":"47","num_nodes":"17","size_leaf_vector":"1"}},{"base_weights":[1.9490123E-3,1.0583939E-2,-2.8657839E-2,7.061649E-3,7.86091E-2,7.1125985E-3,-4.046588E-2,1.1143966E-2,-6.079732E-2,3.9786863E-4,1.0647477E-3,4.803709E-4,-2.2039532E-4,-1.7550068E-2,-6.8493575E-2,-1.0896354E-5,3.188186E-4,-1.0869984E-3,-1.4259137E-4,-4.88416E-4,1.0913945E-4,-9.567406E-4,-3.610759E-4],"categories":[],"categories_nodes":[],"categories_segments":[],"categories_sizes":[],"default_left":[0,1,0,0,0,0,0,1,0,0,0,0,0,0,0,0,0,0,0,0,0,0,0],"id":68,"left_children":[1,3,5,7,9,11,13,15,17,-1,-1,-1,-1,19,21,-1,-1,-1,-1,-1,-1,-1,-1],"loss_changes":[5.9567843E-2,4.1155905E-2,2.1385193E-2,4.6520393E-2,5.6145974E-3,1.5702285E-2,2.2623934E-2,4.079031E-2,1.9173741E-2,0E0,0E0,0E0,0E0,1.9795481E-2,1.1479311E-2,0E0,0E0,0E0,0E0,0E0,0E0,0E0,0E0],"parents":[2147483647,0,0,1,1,2,2,3,3,4,4,5,5,6,6,7,7,8,8,13,13,14,14],"right_children":[2,4,6,8,10,12,14,16,18,-1,-1,-1,-1,20,22,-1,-1,-1,-1,-1,-1,-1,-1],"split_conditions":[9.616865E-1,1.4627895E0,1.0691361E-1,1.4680346E0,-7.9989664E-2,-5.970922E-1,1.1989151E0,2.8452092E-1,3.3253703E-1,3.9786863E-4,1.0647477E-3,4.803709E-4,-2.2039532E-4,5.0549947E-2,1.4396769E-1,-1.0896354E-5,3.188186E-4,-1.0869984E-3,-1.4259137E-4,-4.88416E-4,1.0913945E-4,-9.567406E-4,-3.610759E-4],"split_indices":[36,35,1,28,37,42,36,34,35,0,0,0,0,13,35,0,0,0,0,0,0,0,0],"split_type":[0,0,0,0,0,0,0,0,0,0,0,0,0,0,0,0,0,0,0,0,0,0,0],"sum_hessian":[2.25E2,1.76E2,4.9E1,1.68E2,8E0,1.2E1,3.7E1,1.59E2,9E0,4E0,4E0,5E0,7E0,2.1E1,1.6E1,1E2,5.9E1,4E0,5E0,1E1,1.1E1,8E0,8E0],"tree_param":{"num_deleted":"0","num_feature":"47","num_nodes":"23","size_leaf_vector":"1"}},{"base_weights":[7.62386E-4,8.969597E-3,-3.9771523E-2,-1.710775E-4,4.9780138E-2,-2.2376264E-2,-1.3080237E-3,3.1330192E-3,-1.0553553E-3,6.8320744E-2,-2.809928E-4,-8.385132E-3,-7.185236E-4,1.766476E-4,-2.355831E-4,1.1370927E-3,5.4655754E-4,1.4176655E-4,-2.803461E-4],"categories":[],"categories_nodes":[],"categories_segments":[],"categories_sizes":[],"default_left":[1,0,0,0,0,0,0,0,0,0,0,0,0,0,0,0,0,0,0],"id":69,"left_children":[1,3,5,7,9,11,-1,13,-1,15,-1,17,-1,-1,-1,-1,-1,-1,-1],"loss_changes":[7.023013E-2,6.6341184E-2,5.3219225E-2,5.1494762E-2,4.828988E-2,2.000929E-2,0E0,5.464508E-2,0E0,1.1645101E-2,0E0,1.1198821E-2,0E0,0E0,0E0,0E0,0E0,0E0,0E0],"parents":[2147483647,0,0,1,1,2,2,3,3,4,4,5,5,7,7,9,9,11,11],"right_children":[2,4,6,8,10,12,-1,14,-1,16,-1,18,-1,-1,-1,-1,-1,-1,-1],"split_conditions":[8.4561414E-1,8.7319434E-1,2.2375808E0,1.9484179E0,6.236258E-1,1.0119659E0,-1.3080237E-3,1.3121963E0,-1.0553553E-3,9.1784805E-1,-2.809928E-4,-2.5191763E-1,-7.185236E-4,1.766476E-4,-2.355831E-4,1.1370927E-3,5.4655754E-4,1.4176655E-4,-2.803461E-4],"split_indices":[33,20,3,34,44,36,0,24,0,27,0,39,0,0,0,0,0,0,0],"split_type":[0,0,0,0,0,0,0,0,0,0,0,0,0,0,0,0,0,0,0],"sum_hessian":[2.11E2,1.76E2,3.5E1,1.44E2,3.2E1,3E1,5E0,1.4E2,4E0,2.6E1,6E0,2.4E1,6E0,9.1E1,4.9E1,5E0,2.1E1,1.1E1,1.3E1],"tree_param":{"num_deleted":"0","num_feature":"47","num_nodes":"19","size_leaf_vector":"1"}},{"base_weights":[3.4558656E-5,3.6753514E-3,-6.510653E-2,7.176916E-3,-5.5750452E-2,-9.5838663E-4,-2.1049783E-4,4.593893E-3,8.118622E-4,-1.277796E-3,-7.482931E-5,7.8438665E-5,-4.1459492E-4],"categories":[],"categories_nodes":[],"categories_segments":[],"categories_sizes":[],"default_left":[0,0,0,0,0,0,0,1,0,0,0,0,0],"id":70,"left_children":[1,3,5,7,9,-1,-1,11,-1,-1,-1,-1,-1],"loss_changes":[5.1563095E-2,4.309969E-2,1.339294E-2,3.6711346E-2,3.815098E-2,0E0,0E0,2.8488692E-2,0E0,0E0,0E0,0E0,0E0],"parents":[2147483647,0,0,1,1,2,2,3,3,4,4,7,7],"right_children":[2,4,6,8,10,-1,-1,12,-1,-1,-1,-1,-1],"split_conditions":[1.8636135E0,9.585606E-1,1.8490651E0,1.7520478E0,4.6758154E-1,-9.5838663E-4,-2.1049783E-4,1.3496617E0,8.118622E-4,-1.277796E-3,-7.482931E-5,7.8438665E-5,-4.1459492E-4],"split_indices":[1,11,5,20,2,0,0,33,0,0,0,0,0],"split_type":[0,0,0,0,0,0,0,0,0,0,0,0,0],"sum_hessian":[2.19E2,2.08E2,1.1E1,1.97E2,1.1E1,6E0,5E0,1.91E2,6E0,4E0,7E0,1.79E2,1.2E1],"tree_param":{"num_deleted":"0","num_feature":"47","num_nodes":"13","size_leaf_vector":"1"}},{"base_weights":[1.2681081E-3,4.43372E-3,-8.4642944E-4,1.0489315E-3,8.2041204E-2,4.456547E-2,-5.006539E-3,8.57982E-5,1.4416468E-3,9.1468747E-4,1.8446644E-4,1.8481546E-4,-1.3564459E-4],"categories":[],"categories_nodes":[],"categories_segments":[],"categories_sizes":[],"default_left":[1,0,0,0,0,0,0,0,0,0,0,0,0],"id":71,"left_children":[1,3,-1,5,7,9,11,-1,-1,-1,-1,-1,-1],"loss_changes":[5.7449233E-2,5.337051E-2,0E0,5.2814506E-2,3.6645353E-2,2.8071135E-2,3.5152275E-2,0E0,0E0,0E0,0E0,0E0,0E0],"parents":[2147483647,0,0,1,1,3,3,4,4,5,5,6,6],"right_children":[2,4,-1,6,8,10,12,-1,-1,-1,-1,-1,-1],"split_conditions":[1.570237E0,1.9769037E0,-8.4642944E-4,-9.019785E-1,4.3352112E-1,-5.3357303E-1,-9.610896E-1,8.57982E-5,1.4416468E-3,9.1468747E-4,1.8446644E-4,1.8481546E-4,-1.3564459E-4],"split_indices":[40,12,0,37,42,33,5,0,0,0,0,0,0],"split_type":[0,0,0,0,0,0,0,0,0,0,0,0,0],"sum_hessian":[2.13E2,2.06E2,7E0,1.98E2,8E0,2.4E1,1.74E2,4E0,4E0,8E0,1.6E1,4.6E1,1.28E2],"tree_param":{"num_deleted":"0","num_feature":"47","num_nodes":"13","size_leaf_vector":"1"}},{"base_weights":[8.750003E-4,6.2367518E-2,-2.4233516E-3,1.1033061E-3,1.5447398E-4,-1.5476174E-2,2.0581473E-2,-1.8930677E-2,8.4969454E-4,3.1671748E-2,-4.968462E-2,3.6280187E-5,-3.0409495E-4,1.6040621E-4,8.6485414E-4,1.1479789E-4,-1.0815043E-3],"categories":[],"categories_nodes":[],"categories_segments":[],"categories_sizes":[],"default_left":[0,0,1,0,0,0,0,0,0,0,0,0,0,0,0,0,0],"id":72,"left_children":[1,3,5,-1,-1,7,9,11,-1,13,15,-1,-1,-1,-1,-1,-1],"loss_changes":[4.5803346E-2,2.3770064E-2,6.361697E-2,0E0,0E0,4.7160994E-2,6.0220852E-2,3.4374535E-2,0E0,5.5258244E-2,3.913576E-2,0E0,0E0,0E0,0E0,0E0,0E0],"parents":[2147483647,0,0,1,1,2,2,5,5,6,6,7,7,9,9,10,10],"right_children":[2,4,6,-1,-1,8,10,12,-1,14,16,-1,-1,-1,-1,-1,-1],"split_conditions":[-1.1973665E0,-8.77935E-1,3.01882E-1,1.1033061E-3,1.5447398E-4,1.7520478E0,1.6935875E0,-8.858556E-1,8.4969454E-4,1.1790855E0,-2.1647975E-1,3.6280187E-5,-3.0409495E-4,1.6040621E-4,8.6485414E-4,1.1479789E-4,-1.0815043E-3],"split_indices":[19,3,32,0,0,20,29,12,0,12,40,0,0,0,0,0,0],"split_type":[0,0,0,0,0,0,0,0,0,0,0,0,0,0,0,0,0],"sum_hessian":[2.22E2,1.1E1,2.11E2,5E0,6E0,1.35E2,7.6E1,1.31E2,4E0,6.6E1,1E1,4.4E1,8.7E1,5.2E1,1.4E1,5E0,5E0],"tree_param":{"num_deleted":"0",